%YAML:1.0
---
opencv_ml_svm:
   format: 3
   svmType: C_SVC
   kernel:
      type: LINEAR
   C: 2.6699999999999999e+00
   term_criteria: { epsilon:1.1920928955078125e-07, iterations:1000 }
   var_count: 256
   class_count: 3
   class_labels: !!opencv-matrix
      rows: 3
      cols: 1
      dt: i
      data: [ 1, 2, 3 ]
   sv_total: 3
   support_vectors:
      - [ -3.99774276e-02, 1.23874381e-01, 2.36244172e-01,
          4.80668396e-01, 1.43011019e-01, 1.19806305e-02,
          -1.68911256e-02, 9.80853438e-02, 1.20534100e-01,
          -2.04002470e-01, -1.90109670e-01, -1.79325953e-01,
          -1.60516381e-01, 7.81436730e-03, -2.23193429e-02,
          -7.43834451e-02, 2.39138573e-01, 1.26427755e-01,
          3.46307188e-01, 1.16047569e-01, -1.01132646e-01,
          -5.87262735e-02, -7.76968518e-05, -1.68742001e-01,
          -2.00400501e-01, -9.49165151e-02, -4.63015176e-02,
          1.45834655e-01, 1.96008325e-01, 1.75591931e-01, 3.28826457e-01,
          1.81921497e-01, -9.72887725e-02, -4.15478908e-02,
          -1.33796319e-01, -3.90961394e-02, -5.30043244e-02,
          -4.70890955e-04, -1.46411955e-01, -1.77283719e-01,
          3.59223112e-02, -1.89464763e-02, -4.92947996e-02,
          2.65896227e-02, 1.39735684e-01, 3.95892084e-01, 3.19817036e-01,
          1.57932118e-01, 6.90554455e-02, 6.35623112e-02, 6.02383399e-03,
          6.41452491e-01, 4.19314206e-01, -5.92447780e-02,
          7.59693235e-03, -4.40066047e-02, -4.06042151e-02,
          -4.90169860e-02, 5.73497172e-03, -1.03806965e-01,
          -3.14587295e-01, -4.72101718e-02, -4.22636084e-02,
          -4.73372862e-02, 2.95131709e-02, 1.60173792e-02,
          6.67090043e-02, 1.04405589e-01, 2.48978175e-02,
          -3.64101604e-02, -3.85751128e-02, 3.54941972e-02,
          -4.17157970e-02, 8.41416419e-02, 1.08643740e-01,
          2.29118541e-01, 2.14781627e-01, -5.57809509e-03,
          -5.43410890e-02, 3.46439965e-02, 1.63004085e-01,
          3.46980579e-02, 4.85473201e-02, -5.90185672e-02,
          2.59263128e-01, 1.04483142e-02, 1.41892746e-01, 1.21416301e-01,
          8.16970016e-04, 4.31699269e-02, -8.55096988e-03,
          -9.38210711e-02, -3.44415233e-02, -1.17216118e-01,
          -1.31933734e-01, -2.45217040e-01, 2.09315959e-02,
          -1.38263032e-02, -4.08549234e-03, -1.42418236e-01,
          2.19394136e-02, 1.40612751e-01, 2.92047802e-02, 1.83902487e-01,
          1.87761292e-01, 8.62577334e-02, 1.37318134e-01, 6.45835623e-02,
          -9.77534577e-02, -2.49357462e-01, -3.89762111e-02,
          1.06469825e-01, -2.51645505e-01, -2.25535166e-02,
          2.41953749e-02, 1.59173906e-02, -1.76216900e-01,
          -7.23764999e-03, 1.73106324e-02, 4.65035550e-02,
          2.15253487e-01, 1.23288952e-01, 5.22771776e-02, 1.22550599e-01,
          4.96141538e-02, 3.99556346e-02, 4.55513932e-02, 1.09374866e-01,
          -1.46785587e-01, -2.01308727e-01, -3.41907352e-01,
          -2.57525265e-01, 6.25958070e-02, -2.79450533e-03,
          -1.88204255e-02, 5.59816733e-02, 3.39809537e-01,
          -3.91735835e-03, 3.30555029e-02, 1.38815194e-01,
          -2.90543190e-03, -6.57711225e-03, -7.58662373e-02,
          -1.54327825e-01, -2.60298271e-02, -7.07229078e-02,
          6.72790483e-02, -1.34601444e-01, 1.37906209e-01,
          1.68458641e-01, 1.43498585e-01, 7.45127127e-02,
          -8.82079303e-02, 7.27111660e-03, 7.54154325e-02,
          7.13784769e-02, -4.81703468e-02, -2.88170487e-01,
          -8.85224491e-02, -1.46326035e-01, -7.81102926e-02,
          -1.74040478e-02, -1.35943860e-01, 5.03539070e-02,
          2.09339827e-01, 1.62730724e-01, -4.23603989e-02,
          -5.58731519e-02, 6.04130328e-02, -4.77467105e-02,
          -5.29118478e-02, 7.80136697e-03, -3.21897924e-01,
          -1.97740287e-01, 6.21125773e-02, 1.84268467e-02,
          3.37355509e-02, -5.87879959e-03, -1.55591205e-01,
          -4.74328458e-01, -2.60108024e-01, -1.58238679e-01,
          -1.07927151e-01, -8.12705681e-02, -2.90871989e-02,
          6.25309646e-02, 5.57290912e-02, 2.18756229e-01, 1.68162048e-01,
          1.14896931e-01, 4.44592200e-02, -4.33938839e-02,
          5.67427799e-02, 3.64152603e-02, 1.65349916e-01, 2.80057728e-01,
          2.72108674e-01, 5.59669398e-02, -9.03202686e-03,
          6.24591038e-02, -7.30087385e-02, 4.50718999e-02,
          3.34649719e-02, -3.50432962e-01, -3.43850791e-01,
          -6.77023605e-02, -6.21942654e-02, 4.44889180e-02,
          6.09516688e-02, 1.13481134e-02, -7.15124770e-04,
          -7.31270760e-02, -2.54165798e-01, -4.53457206e-01,
          -1.78471535e-01, -2.59421229e-01, -7.61319995e-02,
          6.16075471e-02, 2.79841255e-02, -3.10193654e-02,
          1.40088499e-01, 1.38914108e-01, 1.04036257e-01, 1.09108888e-01,
          2.68165439e-01, 1.42756894e-01, 1.07623830e-01, 4.97386605e-02,
          6.96194842e-02, -1.59909832e-04, -1.92134395e-01,
          -1.35138124e-01, -2.23633572e-01, -2.47696072e-01,
          -1.73133641e-01, -1.29854143e-01, -2.16708854e-01,
          -1.18010692e-01, 8.21654946e-02, 2.55147696e-01,
          4.60554939e-03, 1.68853715e-01, 1.91379756e-01, 1.23913340e-01,
          -3.33224349e-02, 2.58930381e-02, 5.39997816e-02,
          6.57282695e-02, -7.32549652e-02, -8.06548893e-02,
          -2.90217608e-01, -1.39715642e-01, -3.87925841e-03,
          -1.35525465e-02, 3.89066688e-03, 3.46969394e-03 ]
      - [ 2.05909684e-01, 1.35388047e-01, 3.88742656e-01, 7.79544175e-01,
          8.31235871e-02, -1.16876766e-01, -2.22282395e-01,
          -1.77987590e-02, 1.41621992e-01, -5.01997881e-02,
          -5.19157276e-02, 1.55957891e-02, -2.54102796e-01,
          -1.20548368e-01, -1.24485321e-01, -2.44997535e-02,
          2.92575628e-01, 3.50842357e-01, 4.38523561e-01, 7.49665275e-02,
          1.78118870e-01, 3.76111746e-01, 1.22566134e-01,
          -1.96179956e-01, -1.17620200e-01, 1.75446317e-01,
          1.77130625e-01, 3.83366078e-01, -5.25339507e-02,
          3.88655931e-01, 4.80021149e-01, 2.59677500e-01,
          -3.97257693e-03, -2.38171414e-01, -1.05042994e-01,
          1.08831473e-01, -2.87937466e-02, 1.48127928e-01,
          9.52041000e-02, -1.87570490e-02, 4.40155901e-02,
          -1.17117958e-02, -1.36424989e-01, 1.75039127e-01,
          2.60690838e-01, 3.52665246e-01, 2.45404005e-01, 2.83060402e-01,
          2.79468149e-01, 1.55244648e-01, 1.60652786e-01, 7.66161859e-01,
          4.67369437e-01, -2.70897374e-02, -2.84945313e-03,
          -6.63279071e-02, -4.84444723e-02, -1.41285121e-01,
          -1.16806760e-01, -1.97599769e-01, -3.30249399e-01,
          8.58752429e-02, 7.72341788e-02, -1.81880683e-01,
          -2.57618696e-04, 3.47657427e-02, 5.06056584e-02,
          2.94207688e-03, 1.29369661e-01, 4.71073668e-03,
          -1.08226538e-01, 4.15996611e-02, 2.24575981e-01,
          8.35981742e-02, 2.21824840e-01, 3.62529516e-01, 2.00586900e-01,
          8.98785740e-02, 2.15874240e-02, -1.67499259e-01,
          1.51571289e-01, -2.00489998e-01, -7.59726344e-03,
          3.99259366e-02, 3.45941454e-01, 3.42256725e-01,
          -7.27457330e-02, 3.45174849e-01, 3.18841189e-01,
          2.36517832e-01, 4.43878174e-02, -1.27795830e-01,
          -1.64062843e-01, -1.27225444e-02, -3.49338502e-01,
          1.86431631e-02, 9.49130133e-02, -1.81514338e-01,
          -3.76404189e-02, -1.74541965e-01, 7.41632190e-03,
          1.42229006e-01, 2.05468923e-01, 6.13269687e-01, 1.02453567e-01,
          2.85494208e-01, 3.66265684e-01, 8.07702467e-02,
          -5.04023470e-02, -1.29377782e-01, -1.23514757e-01,
          1.07144006e-01, 4.76603955e-02, 1.58405248e-02, 1.10023431e-01,
          8.74085724e-02, -7.10528642e-02, -1.08934283e-01,
          -7.09180459e-02, -9.87719476e-01, 9.35655236e-01,
          4.19190377e-02, 3.04140717e-01, 2.92461291e-02, 2.12161597e-02,
          7.92609975e-02, 2.52006650e-02, 1.37869269e-01, 6.97550774e-02,
          -8.74785483e-02, -1.11568585e-01, 9.48471650e-02,
          -3.33397910e-02, -2.31894329e-01, -3.62871677e-01,
          -1.22603193e-01, 2.05415234e-01, -8.15011412e-02,
          8.47647861e-02, 4.30135131e-01, 3.25507335e-02,
          -1.00760318e-01, -6.10247850e-02, -4.30277288e-02,
          6.05558902e-02, 1.04401290e-01, 2.56298542e-01, 2.33600587e-01,
          6.62045404e-02, 5.42390525e-01, 1.94477648e-01,
          -9.07445028e-02, -1.15727842e-01, 1.47170261e-01,
          1.82834581e-01, 2.63093948e-01, 1.29818721e-02,
          -1.75069854e-01, -4.44971985e-04, -2.16096211e-02,
          8.21572915e-02, -1.51238680e-01, -1.01307638e-01,
          2.33998716e-01, 2.28685647e-01, 2.81689674e-01, 9.14478377e-02,
          -5.47567420e-02, -3.88958789e-02, -4.14103866e-02,
          -2.36960396e-01, 4.05102223e-02, -3.92208278e-01,
          -8.78346786e-02, 5.01942411e-02, 1.72892421e-01,
          -2.42526174e-01, -6.23263270e-02, -1.58266842e-01,
          -1.34908512e-01, -3.27220172e-01, -1.54803634e-01,
          -2.11787671e-01, -8.64062980e-02, 1.32450178e-01,
          -3.68237048e-02, -4.35143635e-02, -2.11232658e-02,
          1.89276293e-01, 1.63029075e-01, 2.26795167e-01,
          -1.02649383e-01, -2.45384574e-01, 7.17948144e-03,
          1.43137425e-01, -3.84311341e-02, 3.41183245e-01,
          4.26667184e-02, -1.05895489e-01, 2.79424563e-02,
          -1.16000429e-01, -6.70487210e-02, 9.07326341e-02,
          -2.93477803e-01, -4.64256763e-01, 4.64451015e-02,
          6.21751584e-02, -1.44656956e-01, 3.33598591e-02,
          -8.98112282e-02, -2.99837887e-02, -2.11781021e-02,
          -1.27978444e-01, 9.48913582e-03, -1.86992377e-01,
          -2.79919535e-01, -5.65575719e-01, 2.29513854e-01,
          1.07489370e-01, -3.37985642e-02, 1.41346306e-01,
          2.04383790e-01, -2.60151401e-02, 2.31827468e-01,
          1.87679365e-01, -4.96658161e-02, 1.50055498e-01,
          1.38072222e-02, 8.06161687e-02, 1.32035881e-01,
          -2.15702996e-01, -2.56511606e-02, -3.57044563e-02,
          -3.08654130e-01, 1.41863227e-01, -1.97305739e-01,
          3.62928584e-03, 8.02515224e-02, -1.58182397e-01,
          1.69978976e-01, 1.67157412e-01, 3.56589198e-01, 2.33063757e-01,
          2.11175621e-01, 3.92867178e-02, 4.90020309e-03,
          -2.98345089e-03, 8.39844421e-02, -1.90833122e-01,
          7.33639300e-02, 1.17384963e-01, -3.32627863e-01,
          -2.37425268e-01, 5.57167530e-02, -5.02079688e-02,
          -1.61412418e-01 ]
      - [ 3.14304590e-01, 8.78752694e-02, 3.43041897e-01,
          -1.31122187e-01, 1.52208239e-01, -7.14872852e-02,
          -4.91851158e-02, -2.16231614e-01, -5.79407625e-02,
          3.39800477e-01, 7.03014314e-01, 5.27694166e-01,
          -1.74992785e-01, -1.37010783e-01, -2.83321679e-01,
          -1.79575264e-01, -4.74387437e-01, 4.03422266e-01,
          1.51194334e-01, 4.63214368e-01, 6.16646826e-01, 4.48804170e-01,
          -2.43191361e-01, 3.49627465e-01, -6.55303895e-02,
          5.52608967e-01, 4.07634765e-01, 6.90234313e-03,
          -7.70845950e-01, 6.47583544e-01, 8.11938047e-01,
          -3.83991241e-01, 4.60124999e-01, -2.03473970e-01,
          3.10847089e-02, 2.17314690e-01, 1.42059371e-01, 2.00022072e-01,
          3.41690451e-01, 1.93697065e-01, 3.95222902e-01, 1.78389788e-01,
          -2.29074851e-01, -3.05135757e-01, 7.03345537e-02,
          3.32655668e-01, -9.19674262e-02, 1.07340068e-01,
          -5.41509688e-01, -1.13581665e-01, 3.63356531e-01,
          -9.66127098e-01, -6.40577376e-02, -4.95813668e-01,
          -4.91208509e-02, 9.26576555e-03, -2.51707554e-01,
          -2.31489375e-01, -1.33960530e-01, -3.21249403e-02,
          4.17959481e-01, -1.93968013e-01, -4.83332016e-02,
          2.33447626e-01, -3.33449602e-01, -9.23786759e-02,
          -5.24441227e-02, 2.04038993e-01, -1.69925302e-01,
          1.78877339e-01, -7.17767477e-02, 7.58742318e-02,
          2.38692597e-01, 2.75778715e-02, 2.37583816e-01, 3.31487834e-01,
          -2.01579392e-01, 2.82415479e-01, -2.44243726e-01,
          -1.72418430e-01, -7.12541491e-02, 1.89336896e-01,
          -7.15885451e-03, 5.96081197e-01, 3.25143427e-01,
          -1.74542442e-01, 2.03549877e-01, 8.89310800e-03,
          -3.48497957e-01, -1.50937095e-01, -3.08704108e-01,
          4.78091463e-02, -1.71937227e-01, 1.21012248e-01,
          -6.87770545e-01, 4.44935054e-01, 4.42445457e-01,
          1.86260119e-01, 5.76016828e-02, 5.07911563e-01,
          -1.30737424e-01, -1.01737797e-01, 7.26554930e-01,
          2.60756642e-01, -3.35518211e-01, 1.36736125e-01,
          5.23231268e-01, 2.87054271e-01, 3.40669692e-01, 5.84489465e-01,
          4.29653972e-02, -1.56578258e-01, 7.71426916e-01,
          3.41942042e-01, -1.62609994e-01, -1.72689363e-01,
          2.83806361e-02, -3.49670798e-01, 9.10363942e-02,
          -4.01137769e-01, -1.63992986e-01, -8.75044316e-02,
          7.77237415e-01, 7.23059654e-01, -1.60483494e-02,
          -2.37802744e-01, -7.04799443e-02, 3.97267312e-01,
          -2.01908983e-02, 3.39617252e-01, 9.92117763e-01,
          1.11626244e+00, -2.80559063e-01, -2.40870431e-01,
          -8.08324590e-02, 1.18339881e-02, -6.57579349e-03,
          1.96530715e-01, 4.09211427e-01, 1.46607578e-01,
          -1.35056749e-01, -5.06031327e-02, -7.92805776e-02,
          -2.72865891e-01, 2.08639540e-02, 1.78538933e-01,
          6.16682649e-01, 5.08876622e-01, -8.12944844e-02,
          1.13594040e-01, -2.51519829e-01, -3.65341194e-02,
          9.89446342e-02, 6.12039268e-01, 4.66350824e-01, 5.67093253e-01,
          -2.42892101e-01, -6.92178756e-02, 3.72265488e-01,
          5.80258183e-02, 1.20549761e-01, -3.43867689e-01,
          -1.78916380e-01, 2.24715933e-01, 3.17936778e-01,
          3.45856309e-01, 2.32197657e-01, 1.42938510e-01, 1.23739578e-01,
          -3.19158547e-02, -2.32228681e-01, 1.89841837e-01,
          3.19556862e-01, 4.24084395e-01, -1.26954779e-01,
          2.93214411e-01, -4.88842070e-01, -2.13974848e-01,
          -2.93382108e-01, 2.65326768e-01, 4.56207156e-01,
          -1.22301325e-01, -2.13776622e-02, 2.26535965e-02,
          1.05422191e-01, -3.18080217e-01, -2.81652302e-01,
          -3.81257176e-01, 3.74912471e-01, -3.18507589e-02,
          9.92694572e-02, 2.13954449e-01, -9.04148072e-02,
          -1.16622441e-01, -1.44487619e-01, 1.54982254e-01,
          2.89984886e-02, 1.96208462e-01, -2.65971065e-01,
          4.22923751e-02, 1.50178075e-01, -8.78955573e-02,
          4.02911931e-01, -1.43170422e-02, -3.03861320e-01,
          -1.82881176e-01, -7.13312775e-02, -2.79439211e-01,
          -5.38402013e-02, 1.19323611e-01, 2.18343213e-01,
          5.23771942e-01, 8.26079473e-02, 4.28772360e-01, 7.03688383e-01,
          3.59173536e-01, 4.05489504e-01, -1.94950625e-01,
          -2.77136683e-01, 1.39001757e-01, 2.04364240e-01,
          4.63300534e-02, -1.94654241e-01, -2.02402532e-01,
          -1.90238833e-01, 5.27486578e-02, -1.54325694e-01,
          6.09696448e-01, 2.08476535e-03, 6.56264186e-01, 2.28875667e-01,
          8.43574047e-01, 4.97567505e-01, 6.68733865e-02, 9.76941109e-01,
          3.06792706e-01, 8.47386718e-01, 6.79820955e-01, 2.12480679e-01,
          -9.04685929e-02, 4.96220827e-01, 1.15310177e-02,
          -8.83375704e-02, -1.12073965e-01, -1.73514299e-02,
          -1.73022076e-01, 5.69775142e-02, -1.14367515e-01,
          1.00089681e+00, -2.04154596e-01, 5.98379195e-01,
          -2.05971554e-01, -9.19325575e-02, -2.59437144e-01,
          1.34259090e-02, 6.26418114e-01 ]
   uncompressed_sv_total: 108
   uncompressed_support_vectors:
      - [ 6.35999516e-02, 6.29363731e-02, 1.22955829e-01, 3.62552255e-01,
          3.20629746e-01, 1.18238717e-01, 2.77126282e-01, 6.35062084e-02,
          1.23421885e-01, 3.88963185e-02, 2.19879493e-01, 1.56447291e-01,
          4.33622152e-01, 3.13803852e-01, 8.67987722e-02, 2.36964915e-02,
          9.06200036e-02, 7.61372373e-02, 2.11627841e-01, 3.91620904e-01,
          2.26695091e-01, 8.22415948e-02, 6.04693033e-02, 1.51468739e-01,
          9.58887041e-02, 2.72482634e-01, 1.75972611e-01, 1.18188880e-01,
          4.78488684e-01, 1.85651824e-01, 1.02645092e-01, 1.36973113e-01,
          1.30024120e-01, 2.36970171e-01, 3.33618559e-02, 4.10389006e-02,
          3.38422567e-01, 1.44218534e-01, 2.90790468e-01, 9.54551399e-02,
          1.01809122e-01, 4.34209965e-02, 1.85456067e-01, 1.68269292e-01,
          4.98086482e-01, 2.38473788e-01, 7.73616135e-02, 3.25127132e-02,
          5.18910766e-01, 1.04314290e-01, 1.67529523e-01, 9.20895711e-02,
          2.14771442e-02, 4.16739993e-02, 4.15901579e-02, 9.73998979e-02,
          7.27748647e-02, 4.58994322e-02, 1.69595126e-02, 3.25053371e-02,
          1.31960198e-01, 4.83838357e-02, 1.35145023e-01, 5.64575613e-01,
          7.27047145e-01, 3.71213257e-02, 1.16786407e-02, 3.26559581e-02,
          2.16293558e-02, 9.68163610e-02, 1.16142899e-01, 2.59652901e-02,
          3.74801829e-02, 2.10436806e-02, 1.45453382e-02, 1.81029551e-02,
          8.86173919e-02, 3.99626605e-02, 8.25533122e-02, 5.28209984e-01,
          6.61837995e-01, 3.01271845e-02, 2.34662760e-02, 7.59695005e-03,
          1.71473045e-02, 5.98120876e-03, 1.87450182e-02, 1.89514030e-02,
          1.68171357e-02, 2.87459977e-02, 9.29839909e-03, 1.43848511e-03,
          2.10877527e-02, 2.66952515e-02, 3.67583781e-02, 3.95701021e-01,
          6.18926227e-01, 3.19797955e-02, 2.68404391e-02, 5.22621386e-02,
          4.18139957e-02, 1.75650027e-02, 2.49954686e-02, 1.05193937e-02,
          1.63310126e-03, 5.90153597e-03, 6.58095069e-03, 0.,
          3.03259294e-04, 0., 1.57065352e-03, 4.93350685e-01,
          9.20644939e-01, 4.72144075e-02, 2.91731060e-02, 2.81939525e-02,
          2.70532575e-02, 1.57718789e-02, 5.40516041e-02, 4.13415693e-02,
          2.85425410e-02, 0., 0., 1.97700877e-03, 1.84958440e-03,
          3.22369067e-03, 4.96753911e-03, 6.26385391e-01, 4.91280071e-02,
          2.82876734e-02, 8.64706486e-02, 1.32018998e-01, 6.11765623e-01,
          1.59404472e-01, 3.64527643e-01, 7.58568048e-02, 1.33075610e-01,
          9.29444656e-02, 4.38875020e-01, 1.38143599e-01, 4.23371434e-01,
          2.49514803e-01, 7.35800043e-02, 1.38181895e-02, 6.56911582e-02,
          4.46377769e-02, 1.11071803e-01, 3.25352818e-01, 4.62681472e-01,
          1.86618745e-01, 6.38473034e-02, 1.54465511e-01, 1.10522337e-01,
          3.43835890e-01, 3.43668073e-01, 2.22255975e-01, 3.88906986e-01,
          8.67177993e-02, 9.14255604e-02, 1.03740267e-01, 9.69645083e-02,
          1.43510252e-01, 5.21564931e-02, 1.12067498e-01, 2.28267908e-01,
          1.26758114e-01, 3.28142643e-01, 8.77528936e-02, 1.13309614e-01,
          2.45887693e-02, 2.70306855e-01, 3.39646578e-01, 6.20275974e-01,
          2.46766701e-01, 8.32720399e-02, 3.26620252e-03, 5.77554226e-01,
          8.61274600e-02, 1.73824489e-01, 1.36857256e-01, 1.61632728e-02,
          1.52913071e-02, 5.03467098e-02, 1.22065745e-01, 8.45769569e-02,
          1.36314975e-02, 4.02819067e-02, 2.86718998e-02, 1.57967880e-01,
          5.81946671e-02, 1.59642428e-01, 3.68629247e-01, 6.12582088e-01,
          3.66995037e-02, 2.71453429e-02, 1.87594034e-02, 1.60211716e-02,
          7.34329596e-02, 1.36044860e-01, 7.61690736e-02, 6.87909350e-02,
          3.01098432e-02, 2.11243909e-02, 0., 9.81051251e-02,
          5.27235083e-02, 7.48783648e-02, 5.05316079e-01, 9.50475931e-01,
          5.09049594e-02, 4.64422256e-02, 5.98271983e-03, 2.38135606e-02,
          6.73426222e-03, 1.49056427e-02, 4.22128774e-02, 4.88055050e-02,
          3.58210085e-03, 0., 9.58990131e-04, 0., 0., 0., 2.02023149e-01,
          7.84115732e-01, 2.68518198e-02, 1.63414031e-02, 2.08081491e-02,
          4.85111028e-02, 1.46648930e-02, 2.54573878e-02, 2.15280503e-02,
          1.15316380e-02, 1.05793513e-02, 4.89120651e-03, 0.,
          2.42607435e-03, 0., 2.65583396e-03, 4.40789670e-01,
          8.42740715e-01, 5.78820594e-02, 1.59467589e-02, 2.31200475e-02,
          1.89979170e-02, 3.19219120e-02, 3.25694643e-02, 3.42950039e-02,
          3.28088589e-02, 3.24501609e-03, 0., 0., 3.49253067e-03, 0.,
          5.85328322e-03, 8.16570640e-01 ]
      - [ 1.57851004e-03, 4.46470047e-04, 2.32887939e-02, 1.32313967e-01,
          2.18207970e-01, 1.11444425e-02, 5.73903741e-03, 2.36387458e-03,
          3.78842419e-03, 7.81322597e-04, 2.20794324e-02, 2.13469237e-01,
          8.11447799e-02, 8.70014448e-03, 5.27096633e-03, 3.77169531e-03,
          1.00015020e-02, 1.92030426e-02, 5.04824333e-02, 1.69257045e-01,
          3.60068768e-01, 3.72508496e-01, 3.48084003e-01, 4.57055029e-03,
          2.55016098e-03, 1.00280102e-02, 2.67005316e-03, 8.75288010e-01,
          2.47250706e-01, 3.18719372e-02, 2.41056792e-02, 2.31015007e-03,
          1.64243102e-01, 1.45531434e-03, 3.80040295e-02, 2.51444653e-02,
          2.47904807e-02, 4.67399461e-03, 8.10088217e-03, 5.48957944e-01,
          9.08898890e-01, 9.33589879e-03, 1.16637098e-02, 2.08865739e-02,
          2.74249408e-02, 9.74613708e-03, 2.90211365e-02, 9.46111307e-02,
          8.62793252e-03, 8.76515266e-03, 4.47359122e-03, 2.25257158e-01,
          1.99683741e-01, 7.08879950e-03, 1.09318923e-02, 4.37749876e-03,
          8.81322380e-03, 2.21581589e-02, 2.82733305e-03, 1.19678639e-01,
          4.17771846e-01, 2.09744796e-02, 9.31741763e-03, 2.49584351e-04,
          3.70752633e-01, 1.22826332e-02, 7.94744398e-03, 1.99488923e-03,
          3.98880336e-03, 8.65713507e-03, 1.76953450e-02, 1.83913577e-02,
          4.02719043e-02, 1.19144553e-02, 3.14368587e-03, 7.14700844e-04,
          9.98337404e-04, 4.37911227e-03, 3.25419232e-02, 9.01421666e-01,
          4.96658236e-02, 5.06664664e-02, 3.56123298e-02, 8.18595588e-02,
          2.24041283e-01, 1.31155878e-01, 4.93615806e-01, 3.36441457e-01,
          7.89678469e-02, 2.86147115e-03, 4.32795845e-02, 1.05950974e-01,
          4.59409542e-02, 1.28122754e-02, 4.98823375e-02, 3.52056772e-02,
          7.70611614e-02, 3.67285758e-02, 4.70168814e-02, 6.40530065e-02,
          3.52602340e-02, 8.26359168e-03, 2.26316303e-02, 4.54512537e-01,
          3.58886093e-01, 1.61819011e-02, 8.06671102e-03, 2.77151037e-02,
          2.47617122e-02, 1.03319231e-02, 7.80481622e-02, 1.23525307e-01,
          9.24093649e-02, 3.11283953e-02, 9.38383956e-03, 1.32494858e-02,
          3.62720042e-02, 1.41409645e-02, 4.56816256e-02, 4.72853422e-01,
          4.28860307e-01, 1.00351376e-02, 8.95799883e-03, 3.35391681e-03,
          1.94049273e-02, 2.02501994e-02, 5.18820956e-02, 5.92774972e-02,
          6.48600468e-03, 3.92541150e-03, 1.47470774e-03, 1.97728008e-01,
          3.06977570e-01, 1.50588313e-02, 1.87207316e-03, 8.99889157e-04,
          8.87720473e-03, 2.61329208e-03, 7.42153404e-03, 1.99730113e-01,
          3.45092230e-02, 2.19322019e-03, 4.87583457e-03, 5.73360780e-03,
          9.25583113e-03, 5.05682230e-02, 5.02057001e-02, 1.52845830e-01,
          4.06422317e-01, 2.89157003e-01, 2.91006118e-01, 6.41529933e-02,
          0., 0., 8.91395845e-03, 7.65777528e-01, 3.70920181e-01,
          5.54327965e-02, 3.62316333e-02, 1.96445417e-02, 1.05416641e-01,
          3.32119223e-03, 6.65623173e-02, 3.35744070e-03, 3.07837669e-02,
          3.52965581e-04, 1.33901928e-02, 5.08425832e-01, 1.05032086e+00,
          1.55813871e-02, 3.47939320e-02, 2.58638076e-02, 2.75139622e-02,
          0., 4.43931594e-02, 7.15887845e-02, 8.25159345e-03,
          5.69139898e-04, 1.02929352e-02, 3.01903427e-01, 2.43920997e-01,
          4.89258533e-03, 6.84405537e-03, 0., 5.53563144e-03,
          2.11386848e-02, 6.93172123e-03, 9.79819372e-02, 3.75279903e-01,
          1.45100206e-02, 7.46134808e-03, 0., 2.59307563e-01,
          1.19112590e-02, 5.93717583e-03, 0., 7.14700844e-04,
          6.76924177e-03, 4.56713419e-03, 3.19623924e-03, 5.52478526e-03,
          1.21917836e-02, 7.94089772e-03, 1.89251769e-02, 2.27964893e-02,
          3.60299014e-02, 9.45880711e-02, 1.12864113e+00, 4.27937992e-02,
          1.19099701e-02, 9.37707946e-02, 8.67706537e-02, 2.76484787e-01,
          1.56546593e-01, 5.38356006e-01, 3.37116569e-01, 7.42475465e-02,
          1.50727900e-02, 5.24353720e-02, 5.76274768e-02, 4.16254401e-02,
          2.27823630e-02, 3.50886360e-02, 1.34084038e-02, 7.58158714e-02,
          3.56576703e-02, 3.92807461e-02, 8.13155919e-02, 3.61449160e-02,
          1.79114547e-02, 3.27787995e-02, 5.49814343e-01, 3.19838375e-01,
          1.56689864e-02, 2.09532548e-02, 1.04626333e-02, 2.29615401e-02,
          8.15495569e-03, 7.61217773e-02, 9.98716205e-02, 6.53518066e-02,
          2.44277287e-02, 5.86996926e-03, 1.16612995e-02, 2.89358012e-02,
          1.30551858e-02, 3.82218994e-02, 5.22318244e-01, 4.53548253e-01,
          1.53671708e-02, 1.69558283e-02, 4.84616449e-03, 3.15905139e-02,
          3.27981412e-02, 6.16280250e-02, 4.00417596e-02 ]
      - [ 4.21442926e-01, 1.46953491e-02, 1.00248177e-02, 1.12120807e-02,
          6.13668188e-02, 3.89666446e-02, 9.76078883e-02, 1.54435098e-01,
          2.29128718e-01, 4.56794381e-01, 3.17615241e-01, 2.98749581e-02,
          6.49661496e-02, 1.42969424e-02, 2.15191077e-02, 2.36425847e-01,
          3.79182845e-01, 3.18860151e-02, 3.92587297e-02, 5.24057224e-02,
          9.43989456e-02, 4.36077565e-02, 5.41692749e-02, 4.07712609e-01,
          6.00374043e-01, 4.22703207e-01, 1.97437275e-02, 8.51856451e-03,
          3.23876031e-02, 3.48236132e-03, 3.03926952e-02, 8.75190869e-02,
          4.05327946e-01, 1.48788122e-02, 2.94241286e-03, 1.53257037e-02,
          1.47420526e-01, 3.03556085e-01, 4.79906172e-01, 5.56643784e-01,
          9.86820683e-02, 6.89017773e-02, 5.04133571e-03, 3.15372795e-02,
          1.51432514e-01, 6.17780201e-02, 4.84467670e-02, 5.72827697e-01,
          7.97257200e-02, 3.84531617e-02, 2.20361382e-01, 2.87111640e-01,
          2.23822728e-01, 3.50257382e-02, 7.84181431e-03, 4.18241292e-01,
          4.55064356e-01, 1.30612940e-01, 7.65982084e-03, 1.34746702e-02,
          4.51620035e-02, 1.71151217e-02, 3.45186889e-02, 5.01192771e-02,
          5.53487539e-02, 7.38864914e-02, 1.71456650e-01, 1.69509858e-01,
          3.46009582e-01, 8.38683918e-02, 8.00758153e-02, 1.02026448e-01,
          2.77708530e-01, 6.59090877e-02, 1.67163119e-01, 5.13153076e-01,
          7.06977546e-02, 4.01014686e-02, 1.95110682e-02, 2.98951827e-02,
          2.81457841e-01, 5.35976514e-02, 0., 7.68780112e-02,
          1.74277082e-01, 1.58326607e-02, 8.30759183e-02, 3.75023708e-02,
          1.22737266e-01, 5.73162995e-02, 2.01619193e-02, 4.05281521e-02,
          1.47377104e-01, 3.27843666e-01, 1.85963705e-01, 9.28843260e-01,
          3.96721289e-02, 2.30888389e-02, 4.22950462e-02, 4.42262404e-02,
          1.31483853e-01, 1.69517934e-01, 1.16694078e-01, 1.88220054e-01,
          1.37760982e-01, 3.06493733e-02, 1.15391128e-01, 9.90032032e-02,
          1.22812726e-01, 7.63818324e-02, 2.17169985e-01, 1.58809975e-01,
          5.57718277e-01, 3.35826188e-01, 1.32780910e-01, 7.24615008e-02,
          9.68060195e-02, 2.34206021e-03, 2.96283327e-02, 1.51061397e-02,
          5.53296991e-02, 2.48031598e-02, 1.03605509e-01, 8.75654519e-02,
          2.57981066e-02, 1.88401192e-02, 3.69670354e-02, 2.02433512e-01,
          4.29211020e-01, 5.24315462e-02, 1.32272523e-02, 3.62217240e-02,
          1.01696156e-01, 1.77468825e-02, 1.08024329e-01, 5.69723547e-02,
          1.87263533e-01, 3.05074245e-01, 3.34275365e-01, 2.15273183e-02,
          3.34259905e-02, 8.71458929e-03, 2.60575935e-02, 2.79761255e-01,
          3.52175713e-01, 6.06178083e-02, 4.57407013e-02, 2.94169486e-02,
          4.05155681e-02, 2.09583398e-02, 9.59497020e-02, 2.05478489e-01,
          4.61215675e-01, 4.32229847e-01, 7.88118690e-02, 1.31865097e-02,
          5.09004407e-02, 1.55929541e-02, 4.16609347e-02, 2.38353133e-01,
          4.55182344e-01, 6.88766711e-04, 3.53021026e-02, 7.30882771e-03,
          1.58350304e-01, 3.61144274e-01, 3.67623895e-01, 4.54931587e-01,
          9.04414579e-02, 2.37867292e-02, 8.89897440e-03, 1.86253781e-03,
          1.38255745e-01, 8.15518126e-02, 8.72194320e-02, 6.47437572e-01,
          4.22078036e-02, 4.96992767e-02, 1.57800272e-01, 5.06524384e-01,
          3.62909198e-01, 2.01338381e-02, 4.85820360e-02, 4.59455550e-01,
          6.29512489e-01, 1.33983344e-02, 9.05307941e-03, 1.20851006e-02,
          1.21659376e-02, 1.74427424e-02, 8.47422425e-03, 1.39815724e-02,
          5.83593808e-02, 7.55207986e-02, 2.22937062e-01, 1.93536207e-01,
          4.10120368e-01, 9.60311815e-02, 7.29124397e-02, 1.18644021e-01,
          2.89702654e-01, 3.95342037e-02, 1.41503751e-01, 5.53593040e-01,
          1.08045489e-01, 3.44562717e-02, 8.23928416e-03, 2.98607387e-02,
          5.44106424e-01, 7.33454973e-02, 1.12224165e-02, 1.03005946e-01,
          2.56630212e-01, 3.63680385e-02, 6.79267347e-02, 5.87148517e-02,
          6.24267384e-02, 3.98701616e-02, 0., 1.08494423e-02,
          8.11469480e-02, 2.48234496e-01, 1.30918086e-01, 9.03764844e-01,
          5.30826114e-02, 4.73801382e-02, 3.76563966e-02, 6.14237413e-02,
          9.26647633e-02, 1.70657039e-01, 1.80615768e-01, 1.10651039e-01,
          1.29259184e-01, 6.66320398e-02, 7.60098100e-02, 6.76384196e-02,
          2.51735061e-01, 8.07989165e-02, 2.76227474e-01, 1.70298845e-01,
          5.98135114e-01, 2.03156009e-01, 7.71950781e-02, 7.81420544e-02,
          8.85991380e-02, 1.16437189e-02, 1.44981602e-02, 1.28785912e-02,
          5.57584949e-02, 1.91476364e-02, 1.11029088e-01, 8.57451260e-02,
          3.45083401e-02, 3.72392870e-02, 6.06129020e-02, 2.40933418e-01 ]
      - [ 1.28434300e-01, 1.65337771e-01, 1.58545896e-01, 2.02925622e-01,
          1.58064201e-01, 1.30639762e-01, 9.55661014e-02, 1.56485900e-01,
          5.86068742e-02, 2.15952173e-02, 2.41419654e-02, 2.79527046e-02,
          4.14723195e-02, 3.92956957e-02, 4.69765300e-03, 8.47471207e-02,
          1.72897026e-01, 1.26661643e-01, 7.97085911e-02, 2.34145090e-01,
          3.63303304e-01, 2.51071397e-02, 6.19325824e-02, 3.27751115e-02,
          5.21994866e-02, 3.85135822e-02, 4.99871448e-02, 1.88424632e-01,
          3.22867095e-01, 3.47586185e-01, 2.00268671e-01, 3.39018971e-01,
          2.87450980e-02, 1.09507442e-02, 1.18337329e-02, 5.00193238e-03,
          3.46843898e-02, 1.52295316e-02, 5.72191626e-02, 1.06553864e-02,
          3.30416039e-02, 5.62218390e-02, 5.61870635e-02, 3.68094593e-02,
          1.53916106e-01, 4.05831784e-02, 5.44527136e-02, 3.40022780e-02,
          4.95636202e-02, 3.06307673e-02, 6.91561997e-02, 1.87664315e-01,
          1.29239887e-01, 2.77441554e-02, 2.52254046e-02, 1.96550693e-02,
          2.14779042e-02, 1.29973982e-03, 8.54919665e-03, 7.57897794e-02,
          5.23945168e-02, 3.34957652e-02, 3.52072895e-01, 9.27391425e-02,
          1.22962752e-02, 2.22462951e-03, 1.07488511e-02, 6.08035699e-02,
          5.90096116e-02, 2.61675883e-02, 1.83804799e-02, 1.82446558e-03,
          3.01687252e-02, 6.70619011e-02, 1.13054812e-01, 1.06903486e-01,
          6.79054782e-02, 1.62759557e-01, 6.29724264e-02, 8.88262503e-03,
          3.02052140e-01, 3.25108580e-02, 4.02957015e-03, 6.87540788e-03,
          2.24525183e-01, 5.13956726e-01, 5.29809952e-01, 3.89324188e-01,
          4.94703352e-02, 3.29698646e-03, 0., 0., 2.74010766e-02,
          5.11089787e-02, 2.48957917e-01, 8.56078327e-01, 5.11503279e-01,
          3.23747247e-02, 0., 0., 3.00202966e-02, 2.71061598e-03, 0.,
          1.83728054e-01, 3.07957202e-01, 2.85942882e-01, 1.22292668e-01,
          1.62894025e-01, 1.92857236e-01, 4.45746481e-02, 1.19457461e-01,
          5.04727602e-01, 9.11991775e-01, 1.33594861e-02, 8.54554400e-03,
          2.24621091e-02, 4.51822020e-02, 1.34174060e-02, 3.04494128e-02,
          6.62379190e-02, 1.75335839e-01, 7.42921010e-02, 5.56233972e-02,
          6.81417203e-03, 2.36440506e-02, 6.31614169e-03, 0.,
          2.37006798e-01, 3.81473690e-01, 3.13135922e-01, 5.84905446e-01,
          8.45719278e-02, 1.83437750e-01, 1.01777665e-01, 3.85485701e-02,
          9.88114104e-02, 8.64673872e-03, 0., 1.21723698e-03, 0.,
          1.32595806e-03, 0., 8.56199861e-03, 7.30188414e-02,
          1.56234041e-01, 5.51376231e-02, 3.12598757e-02, 4.82637882e-02,
          3.08654904e-01, 7.14432523e-02, 1.22534409e-02, 4.56944183e-02,
          2.46471707e-02, 2.94348951e-02, 2.69992575e-02, 9.95169878e-02,
          3.71526957e-01, 2.34829396e-01, 2.86156237e-01, 3.49532694e-01,
          2.08554231e-02, 0., 0., 8.62254668e-03, 5.21438709e-03, 0., 0.,
          4.45991708e-03, 1.21400068e-02, 3.13426997e-03, 1.56549625e-02,
          1.59707233e-01, 2.51047552e-01, 3.42936218e-01, 1.07526995e-01,
          3.38738598e-02, 8.81404653e-02, 1.55146066e-02, 6.27063140e-02,
          1.68329597e-01, 1.97893083e-01, 7.22757429e-02, 4.26583029e-02,
          7.97411799e-03, 4.42879349e-02, 2.25349776e-02, 2.56507751e-02,
          7.26713389e-02, 7.98322819e-03, 5.87815605e-02, 1.93404570e-01,
          6.46762624e-02, 8.59287940e-03, 3.38639738e-03, 3.94043745e-03,
          4.27637808e-03, 2.01478499e-04, 2.17932323e-03, 2.33037956e-02,
          1.04361866e-02, 2.35215016e-02, 7.88458958e-02, 1.85545653e-01,
          2.56763697e-01, 1.33638963e-01, 3.34047884e-01, 3.58520336e-02,
          7.23442482e-03, 5.70795298e-01, 3.73777486e-02, 1.95772592e-02,
          1.83538813e-02, 1.22674093e-01, 9.43783641e-01, 5.91352046e-01,
          4.01731074e-01, 7.63603523e-02, 2.74040410e-03, 0., 0.,
          1.18872318e-02, 5.69219179e-02, 1.15271077e-01, 3.73645186e-01,
          3.59312832e-01, 2.92689614e-02, 0., 0., 2.29685493e-02, 0., 0.,
          1.82880983e-01, 4.23311502e-01, 4.53352094e-01, 1.63734704e-01,
          2.14650825e-01, 8.93793404e-02, 5.22881187e-02, 1.36817083e-01,
          5.07151663e-01, 6.76242828e-01, 0., 0., 0., 2.45803781e-02, 0.,
          0., 3.63245644e-02, 2.42298916e-01, 3.14307660e-01,
          1.54646128e-01, 3.00909802e-02, 4.00475934e-02, 3.20154335e-03,
          1.17077101e-02, 3.74774069e-01 ]
      - [ 4.96335328e-02, 1.31761178e-01, 1.71246186e-01, 1.60425276e-01,
          5.35922535e-02, 2.70058550e-02, 1.68520920e-02, 3.49962618e-03,
          3.32531496e-03, 2.68007466e-03, 3.34704109e-03, 8.16158801e-02,
          7.86722079e-02, 2.44168304e-02, 5.21883518e-02, 2.92207468e-02,
          1.32813141e-01, 1.17570162e-01, 1.20848659e-02, 3.74731570e-02,
          6.44812658e-02, 1.18245743e-01, 7.80796111e-02, 2.46206727e-02,
          2.57684533e-02, 3.01625137e-03, 7.87192862e-03, 3.34838927e-02,
          7.71123692e-02, 1.54238760e-01, 3.02869588e-01, 2.77704298e-01,
          1.03946114e-02, 1.31923854e-02, 1.25007052e-03, 1.63805410e-02,
          3.43382508e-02, 6.72506541e-02, 3.46240699e-02, 2.53417678e-02,
          1.41738309e-02, 1.87288765e-02, 1.23049626e-02, 1.26548335e-02,
          2.80061197e-02, 5.81692941e-02, 3.95397320e-02, 3.63054057e-03,
          1.17817536e-01, 4.07477729e-02, 3.81269120e-02, 1.93496823e-01,
          3.59153301e-02, 3.39210294e-02, 3.79726440e-02, 2.04003211e-02,
          8.56313389e-03, 3.33834463e-03, 6.77421968e-03, 1.93648133e-02,
          5.15743196e-02, 7.24661872e-02, 9.07986090e-02, 6.25749007e-02,
          3.01295407e-02, 3.42725068e-02, 5.84390163e-02, 1.92975178e-01,
          7.33397365e-01, 1.55295283e-01, 1.23156168e-01, 2.34962739e-02,
          1.46086067e-02, 1.00615472e-02, 2.06358992e-02, 3.24279696e-01,
          4.76604819e-01, 2.17148528e-01, 2.63524264e-01, 2.72318106e-02,
          1.13300957e-01, 4.14297208e-02, 7.19287097e-02, 1.35331586e-01,
          1.06059521e-01, 3.79260421e-01, 3.62901986e-01, 3.01321119e-01,
          2.73807764e-01, 9.07766894e-02, 7.37675428e-02, 6.50178194e-02,
          4.20911871e-02, 1.36709034e-01, 1.25560477e-01, 8.41882378e-02,
          2.28728384e-01, 1.65233687e-01, 1.38436863e-02, 2.61328518e-02,
          1.39089555e-01, 1.15736522e-01, 3.05395573e-01, 4.64299679e-01,
          6.80911839e-01, 1.83132038e-01, 2.06913147e-03, 1.56222843e-02,
          1.23916483e-02, 1.75853431e-01, 3.63686264e-01, 2.48271301e-01,
          9.35501829e-02, 2.90419906e-01, 9.48102400e-02, 1.24643214e-01,
          1.71652943e-01, 1.03216015e-01, 1.28083304e-01, 2.91762203e-01,
          2.50053555e-01, 1.02673739e-01, 3.86291474e-01, 4.35216069e-01,
          1.58580348e-01, 9.65495110e-02, 1.43774360e-01, 4.46298271e-02,
          2.07650643e-02, 5.25338590e-01, 6.18947983e-01, 2.08646983e-01,
          5.52484654e-02, 2.64348965e-02, 0., 2.22852267e-03,
          6.10893965e-03, 0., 6.57254644e-03, 2.04285514e-02,
          5.32511957e-02, 2.46870555e-02, 2.66990112e-03, 4.50719288e-03,
          2.18072429e-01, 1.74340367e-01, 6.15118742e-02, 1.67611204e-02,
          7.03313425e-02, 5.98223358e-02, 2.04881374e-02, 1.19233932e-02,
          2.34361999e-02, 0., 4.86355880e-03, 2.73892786e-02,
          6.75203130e-02, 2.55748898e-01, 6.16915107e-01, 4.13051367e-01,
          9.72144026e-03, 1.20650046e-03, 1.61604327e-03, 5.17978612e-03,
          1.08004557e-02, 3.59259057e-03, 4.62671858e-04, 0.,
          2.27604457e-03, 3.26694502e-03, 1.23085240e-02, 4.25085239e-02,
          1.47424176e-01, 2.56304771e-01, 6.12917319e-02, 2.43570586e-03,
          4.18615639e-02, 6.29516169e-02, 1.27242222e-01, 3.61552417e-01,
          6.42966092e-01, 8.40291530e-02, 1.58160515e-02, 0.,
          1.36562670e-02, 7.87901750e-04, 2.13076826e-03, 4.09928290e-03,
          1.09673152e-02, 1.36332521e-02, 3.76271904e-02, 1.17045520e-02,
          1.11733098e-02, 3.11788563e-02, 4.92196754e-02, 2.43979931e-01,
          5.55185795e-01, 1.76333308e-01, 1.82744697e-01, 2.86183842e-02,
          1.75337289e-02, 1.64326541e-02, 4.06584330e-02, 5.67552626e-01,
          4.34227645e-01, 3.30685258e-01, 1.06455319e-01, 5.49781835e-03,
          1.08629130e-01, 4.11524214e-02, 6.55050501e-02, 1.72398314e-01,
          9.23986435e-02, 6.34817421e-01, 5.37188947e-01, 3.23357373e-01,
          2.43613720e-01, 6.14140742e-02, 6.19061776e-02, 5.29344529e-02,
          4.41016518e-02, 8.22264701e-02, 9.92542505e-02, 5.95620163e-02,
          1.80345327e-01, 1.80537760e-01, 0., 8.27970169e-03,
          3.00145354e-02, 7.67226294e-02, 4.32484508e-01, 5.64367354e-01,
          8.83090854e-01, 1.66155934e-01, 0., 8.11853539e-03,
          2.11367868e-02, 2.53248543e-01, 3.39967698e-01, 1.33089349e-01,
          8.67884383e-02, 2.82495618e-01, 1.22927800e-01, 7.44015872e-02,
          1.50651619e-01, 1.27744928e-01, 1.16609402e-01, 2.17077374e-01,
          3.58996361e-01, 1.18870936e-01, 4.34527218e-01, 5.08692026e-01,
          9.58331749e-02, 2.13418648e-01, 1.26548737e-01, 4.00884300e-02 ]
      - [ 1.16609506e-01, 4.34748419e-02, 1.60791695e-01, 1.26062736e-01,
          3.22348386e-01, 1.35973588e-01, 1.62469789e-01, 3.08420748e-01,
          3.66019011e-01, 1.19733013e-01, 1.15005821e-01, 8.92255232e-02,
          9.79851857e-02, 1.13592111e-01, 3.52669694e-02, 3.59155163e-02,
          4.83693890e-02, 2.78237052e-02, 5.08565903e-02, 1.41963869e-01,
          1.95800811e-01, 1.57217029e-02, 3.30243349e-01, 2.15213403e-01,
          2.78562635e-01, 4.45417576e-02, 5.07789366e-02, 9.08429325e-02,
          6.65699184e-01, 3.78916621e-01, 5.56297265e-02, 4.12202021e-03,
          6.28641248e-02, 4.91050668e-02, 4.89969216e-02, 9.75556672e-02,
          6.25651658e-01, 1.16182730e-01, 3.15457247e-02, 2.69695446e-02,
          1.63557809e-02, 4.40946333e-02, 7.42089823e-02, 1.36845827e-01,
          7.96012282e-01, 1.46706179e-01, 1.24646604e-01, 3.14856134e-02,
          8.94497633e-02, 7.18646403e-03, 2.40700436e-03, 1.58567667e-01,
          4.12518948e-01, 7.92404264e-02, 6.67564794e-02, 2.65804231e-02,
          2.74386331e-02, 6.93663061e-02, 1.76475570e-02, 4.14869860e-02,
          4.41552661e-02, 5.36931977e-02, 6.38438063e-03, 1.04589360e-02,
          2.81531692e-01, 5.05253598e-02, 9.70625430e-02, 3.46668780e-01,
          3.07963729e-01, 1.05667092e-01, 2.30308287e-02, 8.52855146e-02,
          2.28784740e-01, 4.39670682e-02, 2.74932049e-02, 4.94982377e-02,
          1.81477010e-01, 5.69684654e-02, 5.67492954e-02, 8.46614540e-02,
          1.90536514e-01, 1.63548321e-01, 1.40126914e-01, 2.81992052e-02,
          3.74094881e-02, 9.13866013e-02, 3.85681242e-01, 3.58551353e-01,
          5.26261508e-01, 8.45917538e-02, 5.42900665e-03, 1.52033838e-02,
          2.24890456e-01, 1.80009484e-01, 3.92060310e-01, 1.13780782e-01,
          2.06409439e-01, 4.01937552e-02, 9.19063762e-03, 7.57841468e-02,
          2.48824790e-01, 1.33979037e-01, 2.42513478e-01, 1.76238224e-01,
          1.41339213e-01, 5.39683476e-02, 3.82076800e-02, 1.02105729e-01,
          2.07014337e-01, 1.68907359e-01, 2.79277205e-01, 3.11778456e-01,
          1.05698906e-01, 8.32347125e-02, 1.78277478e-01, 2.26751432e-01,
          1.71321675e-01, 1.80506319e-01, 1.49728581e-02, 1.04859993e-01,
          1.82210833e-01, 2.98723012e-01, 4.09472555e-01, 6.04875505e-01,
          1.81106374e-01, 3.97849306e-02, 2.25349721e-02, 2.19626836e-02,
          4.07853536e-02, 2.87380698e-03, 2.24817544e-02, 2.03584835e-01,
          3.53357196e-01, 2.21314043e-01, 3.61184061e-01, 3.66684437e-01,
          4.57132071e-01, 2.36202717e-01, 7.45499879e-02, 5.91639318e-02,
          9.86595005e-02, 1.06766574e-01, 3.67338508e-02, 4.39192727e-03,
          3.09750941e-02, 8.87926016e-03, 3.73190211e-04, 4.40493859e-02,
          1.91020712e-01, 2.46285722e-02, 4.59064543e-01, 3.41148019e-01,
          3.67831379e-01, 7.97510967e-02, 5.78869060e-02, 2.36090004e-01,
          6.67869687e-01, 2.82049596e-01, 2.93956865e-02, 0.,
          9.14218500e-02, 5.91815449e-03, 7.60326385e-02, 9.08868313e-02,
          6.71235025e-01, 1.62258819e-01, 5.69250546e-02, 6.90252930e-02,
          3.49214673e-02, 5.10925390e-02, 9.09830257e-02, 8.40853751e-02,
          7.12598503e-01, 9.21726078e-02, 7.51964077e-02, 1.32936398e-02,
          5.27390502e-02, 4.00768705e-02, 4.40633995e-03, 1.26650691e-01,
          3.83384526e-01, 9.90467370e-02, 2.08916664e-02, 1.23683140e-02,
          2.67033163e-03, 2.36010142e-02, 2.06795875e-02, 5.12525849e-02,
          1.26323462e-01, 5.02168201e-02, 1.68279409e-02, 0.,
          2.05126032e-01, 1.64592579e-01, 1.16789714e-01, 5.82739055e-01,
          5.20401478e-01, 1.40325204e-01, 6.28910363e-02, 1.25551194e-01,
          1.76167771e-01, 0., 2.73163188e-02, 2.84090843e-02,
          4.51233648e-02, 1.90446489e-02, 1.07417861e-02, 8.88784826e-02,
          2.37479880e-01, 2.91596085e-01, 1.02616809e-01, 1.23118669e-01,
          1.15304247e-01, 9.98783335e-02, 3.07692260e-01, 1.91118464e-01,
          5.07934690e-01, 7.28592500e-02, 4.93827909e-02, 1.82406828e-02,
          1.77032337e-01, 2.79493421e-01, 4.71331805e-01, 9.76674110e-02,
          2.43499696e-01, 8.67226496e-02, 3.64817753e-02, 1.68017134e-01,
          2.16185138e-01, 5.83601035e-02, 1.90491647e-01, 1.15174286e-01,
          6.64826110e-02, 4.70907688e-02, 9.06586200e-02, 7.27304742e-02,
          1.58699036e-01, 2.31181875e-01, 4.17660236e-01, 4.02263254e-01,
          1.27879024e-01, 1.49568915e-01, 2.64461011e-01, 2.61486620e-01,
          1.90225005e-01, 1.31683946e-01, 3.90570052e-02, 9.68007073e-02,
          2.40053132e-01, 1.06192656e-01, 3.69132876e-01, 8.25393617e-01,
          1.61256582e-01, 2.50784475e-02, 1.94888189e-02, 5.45165502e-02 ]
      - [ 1.65078640e-02, 1.53702479e-02, 8.59829038e-02, 1.39365599e-01,
          7.84997419e-02, 1.42261218e-02, 8.11681990e-03, 8.55257548e-03,
          2.40834635e-02, 8.01604334e-03, 2.63640918e-02, 3.80873680e-02,
          9.74278003e-02, 2.34293435e-02, 2.45221332e-03, 2.58806571e-02,
          1.32822562e-02, 2.32471153e-02, 2.71023989e-01, 1.21046625e-01,
          4.99371439e-02, 2.11639539e-03, 1.43319124e-03, 9.32798372e-04,
          2.25040726e-02, 4.04840037e-02, 3.13384652e-01, 1.99703351e-01,
          5.41088358e-02, 1.40697155e-02, 4.98765195e-03, 1.06823770e-03,
          1.23498123e-02, 3.62755880e-02, 1.15858681e-01, 1.45856276e-01,
          6.64809570e-02, 5.69406757e-03, 7.54707586e-03, 9.32798372e-04,
          4.55902964e-02, 2.38551535e-02, 1.46312028e-01, 1.05746448e-01,
          3.42805609e-02, 3.54522211e-03, 1.17399907e-02, 6.19457429e-03,
          4.35658395e-01, 3.22632827e-02, 8.03767052e-03, 6.20693229e-02,
          4.49867211e-02, 5.01314141e-02, 2.70496700e-02, 3.47633474e-02,
          1.09134354e-01, 5.55821508e-03, 5.02190068e-02, 1.28622741e-01,
          1.89294606e-01, 1.34426549e-01, 8.16587284e-02, 1.72337219e-01,
          1.28366435e-02, 4.41354141e-03, 4.59420197e-02, 2.48616770e-01,
          8.05087611e-02, 8.75700451e-03, 2.21239030e-03, 0.,
          8.45913868e-03, 1.44921299e-02, 4.00655903e-02, 1.87954411e-01,
          3.47021818e-02, 1.41041717e-02, 2.21086154e-03, 3.24912230e-03,
          6.46664977e-01, 1.23243630e-02, 2.51092669e-03, 4.17198520e-03,
          2.34993566e-02, 3.68102151e-03, 1.82043500e-02, 9.72629488e-01,
          8.57471585e-01, 1.81932636e-02, 3.52913737e-02, 2.46161949e-02,
          2.70446148e-02, 1.03564914e-02, 4.02466580e-02, 5.87233663e-01,
          6.45417534e-03, 1.36983767e-02, 1.41864587e-02, 1.95945874e-01,
          5.65225184e-01, 3.24000478e-01, 1.45883877e-02, 8.95643085e-02,
          8.96773711e-02, 3.21567692e-02, 7.24823251e-02, 8.35485086e-02,
          9.92698371e-01, 1.23566188e-01, 1.15152247e-01, 1.00253381e-01,
          4.04509306e-02, 3.62770744e-02, 2.02430114e-02, 3.81450623e-01,
          2.76253343e-01, 1.95856635e-02, 5.42505505e-03, 5.55851497e-03,
          7.76954740e-03, 4.56280215e-03, 1.10111409e-03, 1.71619460e-01,
          2.71522909e-01, 8.54245648e-02, 7.21455924e-03, 8.01178219e-04,
          2.46827528e-02, 2.13808157e-02, 9.46156010e-02, 1.95915654e-01,
          9.33759436e-02, 8.63600615e-03, 1.38285644e-02, 5.54172415e-03,
          2.35854927e-02, 1.57099613e-03, 1.57968476e-02, 3.27953026e-02,
          8.24834853e-02, 2.42781583e-02, 3.26878857e-03, 2.03460623e-02,
          1.45976041e-02, 5.40135950e-02, 3.57122213e-01, 6.37462363e-02,
          4.17606756e-02, 1.48183829e-03, 0., 5.97162987e-04,
          1.55542204e-02, 3.84723283e-02, 2.77925164e-01, 2.44522765e-01,
          5.70185520e-02, 1.05807800e-02, 9.31899901e-03, 0.,
          2.42295694e-02, 7.37222210e-02, 1.36948705e-01, 1.41418502e-01,
          7.46838823e-02, 6.64758030e-03, 5.18843438e-03, 6.36036415e-03,
          3.25498618e-02, 2.37371754e-02, 1.12136565e-01, 1.38395265e-01,
          3.67643796e-02, 1.36191573e-03, 5.02335886e-03, 3.58552812e-03,
          4.35445994e-01, 1.25939567e-02, 2.78795660e-02, 8.08929130e-02,
          7.75623098e-02, 6.51417971e-02, 1.84541550e-02, 4.81954403e-02,
          1.14410803e-01, 2.25523300e-02, 3.27238403e-02, 8.67027938e-02,
          1.49210140e-01, 9.89621654e-02, 1.01326190e-01, 1.68804079e-01,
          6.58722501e-03, 9.47192032e-03, 6.09277673e-02, 2.49323025e-01,
          8.32264796e-02, 4.30190098e-03, 0., 1.65930216e-03,
          7.90862925e-03, 5.01332479e-03, 4.79586273e-02, 1.96786642e-01,
          5.81868663e-02, 3.45199881e-03, 2.38865192e-04, 5.77714061e-03,
          7.39513695e-01, 2.69936398e-02, 1.46945789e-02, 1.24597354e-02,
          3.25332880e-02, 1.07289441e-02, 3.64569500e-02, 1.16123462e+00,
          6.71245337e-01, 1.51300551e-02, 3.41307409e-02, 1.28909769e-02,
          1.26677398e-02, 3.77679040e-04, 5.61928889e-03, 5.04514754e-01,
          0., 2.43496671e-02, 1.96650997e-02, 1.75944448e-01,
          6.63365781e-01, 3.52293938e-01, 1.89027861e-02, 3.92693579e-02,
          1.45165086e-01, 2.39753332e-02, 8.92746225e-02, 1.11268818e-01,
          9.44725156e-01, 5.85247539e-02, 1.11770950e-01, 9.29771066e-02,
          4.19521146e-02, 4.25937437e-02, 3.23459879e-02, 3.61053467e-01,
          2.86168963e-01, 6.93926169e-03, 3.24941706e-03, 0.,
          4.55132080e-03, 2.14978680e-03, 4.35734680e-03, 8.84661004e-02,
          4.27614033e-01, 7.27130920e-02, 1.66103374e-02, 4.38136980e-03 ]
      - [ 2.27002382e-01, 6.70457538e-03, 3.24684829e-02, 2.07073875e-02,
          1.54717537e-02, 5.09630481e-04, 3.22318578e-04, 3.56614427e-03,
          5.26488340e-03, 6.98108785e-03, 2.83745080e-02, 2.26462662e-01,
          1.77204549e-01, 5.43171763e-02, 6.60481155e-02, 1.80542305e-01,
          2.14250937e-01, 1.10985503e-01, 1.09098472e-01, 6.71327934e-02,
          9.90346074e-02, 1.35634437e-01, 2.62045898e-02, 6.19839365e-03,
          1.15394257e-02, 6.68206066e-03, 1.25524057e-02, 1.80093143e-02,
          1.91794708e-02, 1.13179274e-02, 1.41856810e-02, 4.86737192e-02,
          4.11611736e-01, 2.92641167e-02, 7.33763818e-03, 1.26515869e-02,
          9.77915972e-02, 3.55319865e-02, 4.84208949e-03, 4.89029475e-02,
          6.49815425e-02, 7.95720518e-03, 1.29930780e-03, 2.01187916e-02,
          3.56113836e-02, 8.34888313e-03, 8.15539621e-03, 2.61912316e-01,
          9.11654625e-03, 3.26322718e-03, 5.45668118e-02, 4.93454993e-01,
          2.03139279e-02, 0., 1.60574205e-02, 5.88576728e-03,
          2.27913656e-03, 4.84052720e-03, 9.15725995e-03, 4.57264818e-02,
          4.19776678e-01, 1.70688316e-01, 2.39193439e-02, 6.27694232e-03,
          2.45479103e-02, 3.42663229e-02, 3.11629958e-02, 5.57454936e-02,
          9.33275148e-02, 4.66706455e-02, 8.54153745e-03, 8.38003401e-03,
          1.85766742e-02, 7.01433094e-03, 1.60721447e-02, 3.82135180e-03,
          1.27673775e-01, 1.83641035e-02, 1.12811499e-03, 9.75022092e-03,
          2.26807252e-01, 9.65035055e-03, 2.92481948e-02, 2.58217663e-01,
          7.00922981e-02, 1.34252021e-02, 1.54175982e-02, 5.98872960e-01,
          6.83224857e-01, 2.78307707e-03, 0., 2.36576293e-02,
          6.43986985e-02, 2.28625331e-02, 2.32916363e-02, 2.27835059e-01,
          2.40791544e-01, 3.94542031e-02, 2.30771124e-01, 1.92929000e-01,
          2.72703677e-01, 2.73978800e-01, 3.51899713e-01, 3.21261615e-01,
          4.38761801e-01, 5.26661038e-01, 1.20739222e-01, 4.93127257e-02,
          2.74670243e-01, 6.12456799e-01, 1.17480069e-01, 2.17178524e-01,
          3.24414581e-01, 7.09088072e-02, 3.19201648e-02, 1.16837714e-02,
          9.17760581e-02, 1.02063604e-02, 3.12843993e-02, 5.55060804e-01,
          7.61101842e-01, 9.29700024e-03, 5.01927780e-03, 1.83749874e-03,
          9.34039801e-02, 5.51899225e-02, 9.07039121e-02, 2.54256278e-01,
          3.17273825e-01, 7.03598410e-02, 9.91906598e-02, 2.51376871e-02,
          1.04840286e-02, 0., 0., 0., 9.11654672e-04, 6.64476771e-04, 0.,
          1.93157196e-02, 3.31588268e-01, 8.61989930e-02, 5.47246188e-02,
          1.66203111e-01, 3.09771895e-01, 2.17822418e-01, 2.93067783e-01,
          1.03638105e-01, 5.37524149e-02, 0., 0., 0., 0., 0., 0., 0.,
          8.66071880e-03, 2.55225021e-02, 9.11535546e-02, 1.57034159e-01,
          3.85705352e-01, 9.18804482e-03, 6.54715672e-03, 1.15860347e-02,
          5.16366847e-02, 1.44211808e-02, 6.53771032e-03, 3.34532782e-02,
          5.55789955e-02, 5.03589213e-03, 2.70299870e-03, 1.33263990e-02,
          5.25912307e-02, 4.18982655e-02, 3.81366909e-02, 3.50928843e-01,
          4.85989116e-02, 2.74681933e-02, 1.09427050e-01, 5.78380167e-01,
          1.30982876e-01, 3.58314849e-02, 1.12307109e-02, 2.55800202e-03,
          7.09370244e-03, 4.83477867e-04, 2.81452597e-03, 1.08113717e-02,
          2.02654317e-01, 9.88845006e-02, 3.84962931e-02, 3.88868265e-02,
          1.84268765e-02, 5.87530434e-03, 2.05821134e-02, 3.28915343e-02,
          1.37658436e-02, 1.01589514e-02, 8.30611866e-03, 1.97195611e-03,
          1.47414915e-02, 1.46377168e-03, 4.05999236e-02, 7.04432726e-02,
          3.43178540e-01, 5.37054576e-02, 8.79269280e-03, 5.98753104e-03,
          2.63441324e-01, 2.23531611e-02, 1.18992832e-02, 1.33448290e-02,
          3.77756059e-01, 5.28987944e-02, 3.06649245e-02, 8.04641664e-01,
          5.22571266e-01, 3.62032256e-03, 8.97911284e-03, 5.58504742e-03,
          2.57159676e-02, 9.94342752e-03, 3.42530794e-02, 8.86314735e-02,
          8.59117061e-02, 2.55748052e-02, 1.02244459e-01, 2.43605047e-01,
          2.29148284e-01, 3.72659296e-01, 3.50534588e-01, 4.20682251e-01,
          4.74206984e-01, 5.26709259e-01, 8.96033198e-02, 7.81075358e-02,
          4.30989772e-01, 3.31818759e-01, 1.08340770e-01, 2.02609256e-01,
          2.05249816e-01, 6.20511100e-02, 3.63194533e-02, 4.02899906e-02,
          4.35315110e-02, 1.73868146e-02, 1.57104414e-02, 4.52156693e-01,
          9.24789369e-01, 4.50100526e-02, 1.14921480e-02, 1.43071422e-02,
          1.42497361e-01, 1.14391290e-01, 1.04047701e-01, 3.20550591e-01 ]
      - [ 8.26292392e-03, 4.83417709e-04, 1.76259421e-03, 2.00897872e-01,
          5.55470288e-01, 1.05490545e-02, 4.72516418e-02, 6.55433955e-03,
          2.40022894e-02, 1.93004273e-02, 2.47190557e-02, 5.59074283e-01,
          2.22392842e-01, 7.41528929e-04, 3.89026268e-03, 4.53173416e-03,
          2.51737866e-03, 1.17246018e-04, 6.37024734e-03, 3.46587420e-01,
          5.14127433e-01, 6.77707419e-02, 3.25815417e-02, 5.85047640e-02,
          6.51154220e-02, 1.15353920e-01, 1.99540854e-01, 2.17345193e-01,
          3.60712320e-01, 2.85148751e-02, 3.70345381e-03, 3.14861233e-03,
          1.49229821e-03, 1.99318235e-03, 9.45267617e-04, 8.15971568e-02,
          1.08310953e-01, 1.97632480e-02, 8.62861983e-03, 4.27552219e-03,
          1.85674373e-02, 1.74353980e-02, 5.07565364e-02, 5.10750771e-01,
          3.21876526e-01, 1.99139733e-02, 3.50862602e-03, 1.33845711e-03,
          4.47689462e-03, 9.48191248e-03, 5.14156409e-02, 2.00160459e-01,
          1.93938956e-01, 1.39328148e-02, 8.52292962e-03, 0.,
          8.23394395e-03, 4.68984072e-04, 0., 4.33506817e-02,
          5.16739130e-01, 1.39230743e-01, 7.56214093e-03, 3.93953593e-03,
          9.58867930e-03, 4.83417709e-04, 8.13411269e-03, 3.70619476e-01,
          3.31421345e-02, 2.67519965e-03, 3.70764465e-04, 7.86510180e-04,
          5.57065057e-03, 9.66835418e-04, 1.38263972e-02, 3.53969991e-01,
          4.90514398e-01, 5.26490845e-02, 3.23105417e-03, 3.79061047e-03,
          1.37311202e-02, 2.04484202e-02, 1.59640573e-02, 3.41912329e-01,
          2.24906802e-01, 4.49411981e-02, 3.71211325e-03, 0.,
          2.75203213e-03, 3.63788102e-03, 2.16190959e-03, 4.89717610e-02,
          1.22433484e-01, 1.58080943e-02, 9.64892469e-03, 2.30947882e-03,
          2.85561886e-02, 7.47107575e-03, 1.19370788e-01, 8.89577389e-01,
          2.55975872e-01, 3.39304507e-02, 1.16664715e-01, 0.,
          1.92304037e-03, 1.27539737e-02, 0., 1.83797374e-01,
          1.13632941e+00, 5.29687339e-03, 0., 1.70972105e-02,
          1.07030682e-02, 3.92301660e-03, 4.83417709e-04, 5.77424094e-02,
          1.06941834e-01, 4.83417709e-04, 2.28475360e-03, 1.17347739e-03,
          1.64206810e-02, 6.44955924e-03, 1.46348663e-02, 7.04651833e-01,
          5.42139709e-01, 5.48541686e-03, 4.14876966e-03, 1.89077749e-03,
          1.97253581e-02, 5.28972177e-03, 6.23516366e-03, 4.53347266e-01,
          4.25141901e-01, 3.70421424e-03, 3.30086090e-02, 3.22607206e-03,
          4.90246760e-03, 1.33759982e-03, 5.62283769e-03, 4.13734734e-01,
          2.77856141e-01, 0., 1.25324801e-02, 1.46617377e-02,
          3.33275786e-03, 6.98882435e-03, 6.55885786e-02, 3.90152097e-01,
          3.65778685e-01, 6.37614653e-02, 3.56175452e-02, 4.33642603e-02,
          5.43383285e-02, 1.03347957e-01, 1.53000399e-01, 2.60718048e-01,
          4.36008304e-01, 7.25018084e-02, 9.89200082e-03, 3.54463235e-03,
          6.99188933e-03, 1.91450713e-03, 3.14203650e-02, 4.96265739e-02,
          9.31921825e-02, 2.16903370e-02, 4.00629686e-03, 6.27116533e-03,
          1.16022117e-02, 4.13523754e-03, 2.88257990e-02, 5.98195136e-01,
          4.36893553e-01, 3.25849392e-02, 6.18142029e-03, 0.,
          5.80497039e-03, 1.19916918e-02, 2.16372665e-02, 2.81863660e-01,
          2.57466912e-01, 1.04215797e-02, 0., 0., 4.80851624e-03,
          1.17246018e-04, 0., 3.14445309e-02, 3.86234939e-01,
          1.26081154e-01, 1.00216195e-02, 5.55899413e-03, 6.67014765e-03,
          0., 2.88813710e-02, 2.61055022e-01, 6.40985146e-02, 0., 0., 0.,
          6.20983727e-03, 5.09648910e-03, 1.57230813e-02, 6.32329285e-01,
          3.73896629e-01, 6.54169917e-02, 2.48932722e-03, 6.04209676e-03,
          5.30594913e-03, 9.58236493e-03, 2.46055685e-02, 2.03158379e-01,
          3.83017719e-01, 8.57717618e-02, 6.69891294e-03, 6.04474498e-03,
          2.98459642e-03, 2.93477718e-03, 1.45025307e-03, 6.20853119e-02,
          9.86801535e-02, 3.42172734e-03, 3.71547462e-03, 0.,
          3.05055100e-02, 1.33681030e-03, 6.62906542e-02, 8.86868656e-01,
          3.21368307e-01, 3.76043767e-02, 1.41522288e-01, 3.47741880e-02,
          0., 1.81322396e-02, 1.84167139e-02, 6.31414235e-01,
          7.36660302e-01, 0., 6.26403326e-03, 6.87065674e-03,
          1.74213760e-02, 1.37291802e-03, 5.76329045e-03, 1.69394929e-02,
          1.15067661e-01, 4.26789746e-03, 5.86230075e-04, 8.48133862e-03,
          1.63529590e-02, 6.20640442e-03, 2.59004929e-03, 8.22887897e-01,
          6.05628133e-01, 1.65810902e-03, 3.78796877e-03, 5.70831308e-03 ]
      - [ 2.22055867e-01, 1.75310105e-01, 1.02562241e-01, 8.73064026e-02,
          1.59103021e-01, 1.99476391e-01, 2.21991792e-01, 2.52202421e-01,
          1.83528364e-01, 1.07702255e-01, 7.98216313e-02, 4.63200212e-02,
          5.00362106e-02, 1.36370948e-02, 1.77476071e-02, 1.64512843e-01,
          1.26222849e-01, 6.26481473e-02, 3.20629068e-02, 1.23550193e-02,
          5.83115481e-02, 1.18960269e-01, 1.48211405e-01, 4.11649883e-01,
          5.85900784e-01, 1.45547584e-01, 4.41369042e-02, 8.75809640e-02,
          1.58110619e-01, 4.19662818e-02, 5.97285151e-01, 2.93806076e-01,
          6.57786056e-02, 8.10328592e-03, 1.47132976e-02, 1.77260354e-01,
          1.38595000e-01, 4.98072021e-02, 3.75299975e-02, 2.06925720e-02,
          9.61897522e-02, 5.31467907e-02, 1.17292032e-01, 2.30241537e-01,
          1.53891042e-01, 1.17078520e-01, 2.77673267e-02, 2.09567081e-02,
          4.43705678e-01, 0., 1.99081674e-02, 2.06040288e-03,
          1.24433199e-02, 2.75469758e-02, 9.62202027e-02, 9.78297144e-02,
          3.35304230e-01, 2.22511992e-01, 1.50678292e-01, 1.67129904e-01,
          1.71366900e-01, 2.02879384e-01, 2.09389031e-01, 2.15055376e-01,
          1.04285911e-01, 2.37530693e-02, 3.28032732e-01, 7.33328685e-02,
          5.36584817e-02, 3.56274247e-02, 2.32263990e-02, 1.32401176e-02,
          3.43539752e-02, 5.58363758e-02, 3.72587852e-02, 3.52654234e-02,
          1.43641159e-01, 9.63076353e-02, 1.63601726e-01, 5.68005517e-02,
          3.90450001e-01, 1.02838106e-01, 6.29790574e-02, 2.85037551e-02,
          4.59512979e-01, 2.23405361e-01, 2.54961371e-01, 2.50637919e-01,
          3.99668723e-01, 1.22852944e-01, 3.04735273e-01, 2.96096623e-01,
          4.38785143e-02, 2.95557864e-02, 5.30837663e-02, 5.91923654e-01,
          2.70755440e-01, 8.55509862e-02, 3.69549170e-02, 2.38763858e-02,
          2.07165424e-02, 1.83530319e-02, 2.39203498e-02, 1.66947275e-01,
          4.28568631e-01, 3.56609583e-01, 2.42936745e-01, 9.99965593e-02,
          7.31436089e-02, 4.15989831e-02, 9.41887498e-02, 1.65865302e-01,
          1.55072913e-01, 1.08272865e-01, 2.50868779e-02, 1.13884844e-02,
          1.03072144e-01, 2.68322676e-02, 8.38339850e-02, 1.40384644e-01,
          2.07794011e-01, 2.05017433e-01, 1.60280198e-01, 9.55995917e-02,
          1.21551447e-01, 3.47734094e-02, 2.94837188e-02, 4.52311523e-02,
          4.18409169e-01, 2.26667881e-01, 1.56573355e-01, 9.01444182e-02,
          1.80851087e-01, 1.11427121e-01, 1.81030139e-01, 1.81764320e-01,
          1.01410463e-01, 8.69331807e-02, 6.23643287e-02, 3.00386231e-02,
          4.93817180e-02, 4.34245020e-02, 3.37285586e-02, 2.63666153e-01,
          2.40044951e-01, 1.08092293e-01, 2.99156141e-02, 9.59964562e-03,
          3.77705507e-02, 8.07068646e-02, 1.09906614e-01, 1.94177568e-01,
          8.46930325e-01, 1.98891550e-01, 1.53430119e-01, 1.05248746e-02,
          2.01817825e-01, 9.44795832e-02, 6.48021579e-01, 4.78245854e-01,
          1.21076703e-01, 3.30953747e-02, 1.57092556e-01, 7.28530213e-02,
          9.22933295e-02, 1.59529243e-02, 7.95057192e-02, 1.65516380e-02,
          3.74527611e-02, 5.03459573e-02, 2.06114396e-01, 1.44644901e-01,
          1.42953217e-01, 2.95139521e-01, 1.29154280e-01, 1.02640815e-01,
          2.64820218e-01, 0., 0., 0., 0., 0., 9.24024060e-02,
          1.36936054e-01, 3.08418512e-01, 5.37123322e-01, 1.80077672e-01,
          3.18261504e-01, 2.79862523e-01, 1.46460101e-01, 1.88804850e-01,
          5.45833349e-01, 1.61509499e-01, 6.25250041e-02, 4.81257260e-01,
          7.16739148e-02, 2.87050102e-02, 1.43881505e-02, 4.27863188e-02,
          1.28712347e-02, 2.00925432e-02, 2.79748440e-02, 2.88102254e-02,
          5.13296686e-02, 1.72153533e-01, 1.24998160e-01, 1.37475356e-01,
          1.38011262e-01, 2.08891109e-01, 2.20479909e-02, 7.51685649e-02,
          1.17364876e-01, 3.51633728e-01, 1.34947360e-01, 4.11662430e-01,
          3.18334490e-01, 5.08025229e-01, 2.27191284e-01, 3.16144466e-01,
          2.55845636e-01, 1.14972278e-01, 3.89712267e-02, 1.06913224e-01,
          7.44569719e-01, 2.93638200e-01, 1.50672853e-01, 1.95731665e-03,
          0., 2.38572191e-02, 9.26483050e-03, 0., 2.72785246e-01,
          4.15209293e-01, 3.49206060e-01, 3.63848060e-01, 1.22419529e-01,
          1.38697535e-01, 4.02815863e-02, 3.42450440e-02, 8.00405443e-02,
          1.46268206e-02, 0., 1.02446452e-01, 2.11242624e-02,
          6.93022609e-02, 4.76507805e-02, 1.50524095e-01, 1.43444657e-01,
          2.13051543e-01, 3.98254454e-01, 1.78482577e-01, 7.73915574e-02,
          7.57754594e-02, 3.37606966e-02, 1.39249889e-02, 1.46708908e-02 ]
      - [ 3.31674278e-01, 1.12413220e-01, 6.13261946e-02, 1.60023049e-02,
          3.77740152e-02, 3.63397896e-02, 6.93800300e-02, 2.07521722e-01,
          1.63687035e-01, 2.08634255e-03, 0., 1.97080174e-03,
          8.34218413e-03, 3.66043369e-03, 2.26903595e-02, 3.00527751e-01,
          1.93987206e-01, 6.20774217e-02, 2.36471817e-02, 7.01292679e-02,
          2.04938784e-01, 1.90093026e-01, 1.12954430e-01, 1.45634547e-01,
          1.13897741e-01, 1.37830153e-01, 1.53934062e-01, 1.56715110e-01,
          1.29571408e-01, 2.14876339e-01, 1.78023741e-01, 2.35624745e-01,
          1.40178621e-01, 1.21613741e-01, 5.11975706e-01, 7.51798928e-01,
          6.52623296e-01, 1.79873168e-01, 1.18617453e-01, 3.29943895e-01,
          2.29134515e-01, 8.47950578e-02, 1.34789020e-01, 3.10760826e-01,
          3.78388584e-01, 3.44334900e-01, 2.23762505e-02, 1.05718307e-01,
          1.75508171e-01, 3.77804339e-02, 3.03462800e-02, 4.83735055e-02,
          1.08181313e-02, 1.65655483e-02, 8.78475681e-02, 3.59600812e-01,
          1.05832569e-01, 1.06164040e-02, 1.39356731e-03, 5.90673974e-03,
          4.09813179e-03, 7.89383426e-03, 2.94072498e-02, 1.24565683e-01,
          2.82089919e-01, 1.71471816e-02, 2.59642676e-02, 1.35347381e-01,
          1.45463958e-01, 1.40804633e-01, 1.59494847e-01, 2.95359910e-01,
          3.16993654e-01, 3.83068994e-02, 1.37892468e-02, 0.,
          2.15938818e-02, 2.79619955e-02, 9.03745890e-02, 1.17067374e-01,
          1.05454557e-01, 2.06158739e-02, 0., 0., 0., 6.29723165e-03,
          7.52241490e-03, 1.46504287e-02, 2.79912236e-03, 0.,
          3.98000516e-03, 3.02337622e-03, 8.71399790e-02, 8.90425593e-02,
          2.55841404e-01, 1.03899844e-01, 1.02490321e-01, 4.90709171e-02,
          1.14286980e-02, 4.60891752e-03, 1.57881882e-02, 1.16046611e-02,
          7.03369966e-03, 1.02830529e-01, 1.24779277e-01, 3.63901630e-03,
          3.14818183e-03, 6.33948063e-03, 3.25052999e-02, 1.36459796e-02,
          1.31940339e-02, 1.68550119e-01, 2.89848655e-01, 9.66426954e-02,
          2.00005267e-02, 8.62599909e-03, 4.58133072e-02, 3.24693955e-02,
          5.26675060e-02, 9.42106023e-02, 1.30173594e-01, 1.01960329e-02,
          0., 1.73594197e-03, 2.19581230e-03, 3.95855680e-03,
          1.00559480e-02, 1.24088101e-01, 5.59882820e-01, 3.27144891e-01,
          1.19075678e-01, 4.84933183e-02, 3.42224278e-02, 8.11643898e-02,
          9.49631929e-02, 1.56695977e-01, 6.22161888e-02, 0., 0., 0.,
          1.82984350e-03, 0., 2.78713461e-03, 4.57972854e-01,
          1.95627779e-01, 6.34906590e-02, 3.02259792e-02, 1.05887339e-01,
          2.75701851e-01, 1.80801153e-01, 1.65198911e-02, 1.11060567e-01,
          5.30155487e-02, 1.23421915e-01, 1.12671852e-01, 1.80278406e-01,
          2.16610119e-01, 2.54674226e-01, 2.48579368e-01, 4.51624602e-01,
          1.88115358e-01, 9.92350057e-02, 5.36469221e-01, 1.03954136e+00,
          7.31118858e-01, 8.92236158e-02, 2.18477041e-01, 2.06466168e-01,
          1.87166870e-01, 7.39724040e-02, 5.24956249e-02, 2.14942783e-01,
          2.81110138e-01, 4.02326524e-01, 9.61076543e-02, 1.90193444e-01,
          3.46376002e-01, 7.29964003e-02, 2.21535917e-02, 3.52715775e-02,
          2.19652243e-02, 5.31164259e-02, 3.27525347e-01, 1.02326429e+00,
          1.84747219e-01, 1.81145268e-03, 0., 0., 0., 0., 0.,
          2.97538459e-01, 1.54854909e-01, 2.33765692e-02, 2.04653088e-02,
          1.40212327e-01, 1.89665571e-01, 1.01991706e-01, 3.73669535e-01,
          2.46409804e-01, 7.57983565e-01, 5.15065826e-02, 1.73686929e-02,
          2.05000993e-02, 3.30519900e-02, 1.45128537e-02, 9.36902165e-02,
          4.17575240e-01, 1.13892414e-01, 6.37408160e-03, 0.,
          8.69512651e-03, 2.08710153e-02, 3.20700668e-02, 5.41890860e-02,
          1.73647255e-01, 1.33272871e-01, 6.92759780e-03, 6.36011502e-03,
          4.93450137e-03, 2.52865497e-02, 0., 3.38398889e-02,
          1.84371516e-01, 9.96180177e-02, 1.51998736e-02, 1.01897977e-02,
          0., 4.75759292e-03, 0., 1.32334027e-02, 4.09150898e-01,
          2.98952550e-01, 2.58778944e-03, 6.09097490e-03, 0.,
          1.62244886e-02, 4.58757393e-03, 7.05817761e-03, 8.11824650e-02,
          1.22467659e-01, 4.32923250e-02, 6.73982874e-03, 1.15059400e-02,
          2.66013276e-02, 1.12609612e-02, 3.98793481e-02, 2.34088287e-01,
          4.32109535e-01, 1.89792532e-02, 0., 0., 2.56178086e-03,
          7.80208921e-03, 1.46330278e-02, 4.51728404e-02 ]
      - [ 1.76653877e-01, 9.48522836e-02, 4.56812605e-02, 1.57846436e-02,
          1.02513358e-01, 8.31910502e-03, 6.72570840e-02, 3.28421205e-01,
          5.07612228e-01, 1.29192859e-01, 3.46521735e-02, 1.38019221e-02,
          3.80173959e-02, 1.08792009e-02, 3.66317183e-02, 5.89724630e-02,
          7.82029107e-02, 1.04839802e-01, 7.75091127e-02, 1.67506292e-01,
          2.07032993e-01, 3.89006808e-02, 2.46369302e-01, 2.72042841e-01,
          3.74636799e-01, 1.10159721e-02, 1.67109817e-02, 1.04075879e-01,
          2.64477879e-01, 1.34906992e-01, 1.21395953e-01, 3.69889624e-02,
          3.28331478e-02, 3.95278186e-02, 3.59566696e-02, 3.58208120e-02,
          2.06652712e-02, 1.87051389e-02, 2.30498966e-02, 2.94194341e-01,
          6.13964349e-02, 7.69453123e-02, 2.43753083e-02, 2.55363107e-01,
          3.13092172e-01, 8.35976228e-02, 3.45159881e-02, 1.97041053e-02,
          7.80421421e-02, 1.61680859e-02, 1.39558185e-02, 1.38384148e-01,
          6.74229860e-02, 9.27555710e-02, 2.25469589e-01, 1.22356325e-01,
          3.54453884e-02, 1.66100506e-02, 9.01758671e-02, 5.12495227e-02,
          2.32215643e-01, 4.61233296e-02, 3.06748971e-02, 1.13934902e-02,
          1.12368353e-01, 5.93068674e-02, 6.03164174e-02, 3.97152305e-01,
          4.71513808e-01, 7.14752004e-02, 1.50020346e-02, 1.73540469e-02,
          2.96002012e-02, 1.52702974e-02, 4.18078108e-03, 9.07350257e-02,
          5.81457987e-02, 3.34386341e-02, 1.55361705e-02, 7.70188197e-02,
          2.92030960e-01, 4.95331921e-02, 1.69988692e-01, 3.08072809e-02,
          2.83305328e-02, 4.31871302e-02, 4.65028957e-02, 9.96196806e-01,
          3.21837783e-01, 4.86396961e-02, 4.93751727e-02, 8.14113170e-02,
          1.36887833e-01, 9.83389989e-02, 2.95071661e-01, 2.85628736e-01,
          5.32675348e-02, 2.74862405e-02, 1.13878742e-01, 2.94971287e-01,
          2.24951729e-01, 9.36741605e-02, 2.01465771e-01, 3.50247175e-01,
          7.98828080e-02, 4.71639149e-02, 4.12454689e-03, 4.60902527e-02,
          5.18137403e-02, 1.18858851e-01, 7.02182591e-01, 3.00005585e-01,
          1.89153910e-01, 2.95694824e-02, 2.60712262e-02, 1.06343359e-01,
          1.38499066e-01, 2.41610885e-01, 1.42986700e-01, 1.73922509e-01,
          3.69864851e-01, 1.02108561e-01, 9.32055414e-02, 4.11437422e-01,
          4.10650373e-01, 1.04563154e-01, 7.53626674e-02, 2.49305546e-01,
          2.96123512e-02, 1.61240436e-02, 1.56090120e-02, 8.30221456e-03,
          7.89054185e-02, 3.80117148e-02, 2.39107348e-02, 5.45497417e-01,
          4.67989504e-01, 4.39838260e-01, 1.56197362e-02, 3.91821377e-02,
          6.44249097e-02, 5.28438343e-03, 1.46471951e-02, 9.83907748e-03,
          2.73234006e-02, 2.48002447e-02, 3.84286866e-02, 7.05850199e-02,
          3.52447838e-01, 1.51004910e-01, 4.24006611e-01, 4.78755653e-01,
          3.32968622e-01, 4.86470424e-02, 9.98506248e-02, 9.46099013e-02,
          1.64468899e-01, 7.23634213e-02, 3.18790227e-02, 9.95090418e-03,
          1.36740152e-02, 0., 1.57000171e-03, 0., 1.55000240e-01,
          5.25125898e-02, 1.64968565e-01, 4.48174477e-01, 1.74229458e-01,
          4.35722880e-02, 5.08348979e-02, 3.81894320e-01, 2.10077837e-01,
          1.78125110e-02, 7.87698384e-03, 3.64059326e-03, 9.47551131e-02,
          1.67445317e-02, 6.55173808e-02, 5.74903600e-02, 1.05521223e-02,
          2.44504940e-02, 5.93945011e-03, 1.98709555e-02, 3.47353965e-02,
          1.55562889e-02, 2.10867617e-02, 1.40191123e-01, 2.77863503e-01,
          2.56551087e-01, 1.02574311e-01, 9.78484675e-02, 1.54923886e-01,
          5.02900928e-02, 6.09974191e-02, 7.45996654e-01, 4.30320919e-01,
          2.23566182e-02, 3.00843641e-02, 5.77533105e-03, 2.42382381e-02,
          0., 1.39979441e-02, 1.10714668e-02, 1.71947554e-02,
          1.25420485e-02, 9.20100231e-03, 3.89605612e-02, 1.54532984e-01,
          1.11145727e-01, 1.32322326e-01, 2.03515333e-03, 1.71095375e-02,
          3.74051146e-02, 5.23348041e-02, 8.86299193e-01, 3.95817906e-01,
          3.01281810e-02, 4.97830771e-02, 6.64115921e-02, 1.26416191e-01,
          2.59425849e-01, 4.72127825e-01, 4.66800630e-01, 7.19542950e-02,
          1.02151215e-01, 1.78531766e-01, 3.46033603e-01, 1.48769528e-01,
          2.41066515e-02, 1.61116377e-01, 2.91986704e-01, 6.66550323e-02,
          4.46332665e-03, 6.37260312e-03, 2.29685493e-02, 6.15000464e-02,
          1.34626493e-01, 9.15469527e-01, 3.80905151e-01, 2.04280794e-01,
          1.00768231e-01, 1.18108951e-01, 1.22513324e-01, 1.81847453e-01,
          1.73648626e-01, 8.70623514e-02, 1.61804184e-01, 2.32875422e-01,
          8.93287808e-02, 5.62716797e-02, 2.63401687e-01, 5.64342201e-01,
          2.24834215e-02, 1.20376684e-01, 2.87797660e-01 ]
      - [ 2.23809872e-02, 2.46567912e-02, 4.42108773e-02, 1.32844359e-01,
          1.81290716e-01, 4.70844656e-02, 2.08469965e-02, 1.38619225e-02,
          3.32548358e-02, 8.41887202e-03, 2.55355127e-02, 3.72995101e-02,
          7.02721998e-02, 3.22220176e-02, 1.25912026e-01, 3.49933878e-02,
          2.03967810e-01, 1.38840601e-01, 0., 7.65070738e-03,
          1.52525548e-02, 2.15428956e-02, 2.33921781e-02, 2.07178108e-02,
          1.72521453e-02, 8.06823373e-03, 4.23193388e-02, 1.11742519e-01,
          1.92865789e-01, 7.73124397e-02, 1.15970448e-01, 8.77143070e-02,
          3.28304432e-02, 2.55599488e-02, 2.67028343e-02, 4.47806716e-02,
          5.27823530e-02, 9.42146499e-03, 4.76878434e-02, 3.46762352e-02,
          3.46700922e-02, 1.01826228e-02, 5.47055434e-03, 5.37611404e-03,
          5.89598250e-03, 1.55521221e-02, 4.08637747e-02, 8.37546121e-03,
          2.52631772e-02, 2.78830323e-02, 8.41360912e-03, 4.80275415e-02,
          7.03408942e-02, 1.47763506e-01, 1.15112558e-01, 9.53785256e-02,
          1.15960732e-01, 3.47946137e-02, 5.36970235e-02, 8.76666456e-02,
          6.84545711e-02, 5.87230623e-02, 2.83810822e-03, 3.20656016e-03,
          1.47922933e-02, 6.95460737e-02, 1.18044026e-01, 7.17721432e-02,
          7.38070160e-02, 5.84107786e-02, 6.12584129e-02, 2.15329062e-02,
          3.29052098e-02, 0., 1.30575122e-02, 1.76475644e-01,
          5.66053331e-01, 2.96329618e-01, 4.57802191e-02, 3.39686335e-03,
          3.45634744e-02, 1.98639873e-02, 6.06890256e-03, 3.33890505e-02,
          4.43145372e-02, 1.47809675e-02, 2.63330643e-03, 1.29722878e-02,
          1.93951298e-02, 3.63682732e-02, 2.31889449e-02, 1.36004966e-02,
          1.08113050e-01, 1.21270113e-01, 9.54470783e-02, 2.87206322e-02,
          8.21622983e-02, 2.68954989e-02, 3.83965746e-02, 1.88133374e-01,
          4.59307671e-01, 3.14801246e-01, 3.37513000e-01, 7.10775554e-01,
          2.34961376e-01, 1.02716371e-01, 4.18632776e-02, 1.12079121e-01,
          1.31821573e-01, 1.48717135e-01, 8.71266350e-02, 2.43536070e-01,
          3.08003426e-02, 9.03341919e-02, 1.15847446e-01, 1.29805014e-01,
          2.89750367e-01, 2.42341496e-02, 2.17748526e-03, 1.73970629e-02,
          2.33677439e-02, 7.93743581e-02, 5.15847862e-01, 3.95988733e-01,
          4.99744803e-01, 6.66179694e-03, 4.90378495e-03, 3.12337112e-02,
          1.12046205e-01, 5.67530915e-02, 9.14740935e-02, 1.97162718e-01,
          2.90819228e-01, 9.71115427e-04, 7.44811550e-04, 2.31970241e-03,
          8.66033603e-03, 3.30582238e-03, 4.25167009e-03, 1.05278455e-02,
          2.61099301e-02, 1.16584934e-02, 6.61363974e-02, 2.09961817e-01,
          3.86421055e-01, 1.68323606e-01, 7.44811550e-04, 0.,
          5.83829638e-03, 7.44811550e-04, 2.35530082e-04, 0.,
          6.66179694e-04, 1.21587177e-03, 7.44811550e-04, 2.00227629e-02,
          2.08200052e-01, 2.79914349e-01, 3.04933310e-01, 2.43667692e-01,
          2.60018706e-02, 2.27473099e-02, 9.71115427e-04, 0.,
          9.87899117e-03, 2.86642183e-03, 1.31311510e-02, 1.97066646e-02,
          2.26881430e-02, 9.68985260e-03, 8.60477239e-03, 7.87308626e-03,
          4.88548204e-02, 1.11224644e-01, 1.32575482e-01, 8.72209854e-03,
          1.13250548e-02, 1.38822971e-02, 2.06004698e-02, 1.22690931e-01,
          6.36381030e-01, 3.20695490e-01, 7.22878128e-02, 3.41023728e-02,
          1.42914513e-02, 4.78949435e-02, 0., 2.90743299e-02,
          2.65645217e-02, 0., 1.41340256e-01, 0., 5.85820265e-02,
          7.95687884e-02, 5.37617505e-02, 2.42493069e-03, 0., 0., 0., 0.,
          1.99853908e-03, 1.44217559e-03, 4.02517756e-03, 3.23846228e-02,
          7.52275586e-01, 1.04226196e+00, 1.16348855e-01, 5.75666167e-02,
          0., 3.59094143e-03, 9.71115427e-04, 5.45310006e-02,
          1.54219598e-01, 1.10560216e-01, 1.46044061e-01, 1.51740566e-01,
          5.27074710e-02, 3.04642096e-02, 3.48784626e-02, 1.80078186e-02,
          8.00926518e-03, 0., 2.14876584e-03, 0., 5.97557612e-02,
          1.52058341e-02, 3.50704938e-02, 8.14466402e-02, 6.70242488e-01,
          6.12150490e-01, 7.47256517e-01, 5.79522252e-01, 1.75473168e-01,
          1.08891957e-01, 7.13382959e-02, 5.00411391e-02, 1.32113501e-01,
          2.51335092e-02, 4.16491218e-02, 1.53003067e-01, 2.12804042e-02,
          2.76110768e-02, 1.52454684e-02, 4.29677106e-02, 2.50625387e-02,
          1.08042724e-01, 7.26403445e-02, 4.21329029e-03, 5.65240644e-02,
          1.95499599e-01, 8.74687195e-01, 5.83879352e-01, 6.63325846e-01,
          3.61381993e-02, 1.09527530e-02, 1.14661772e-02 ]
      - [ 1.64521128e-01, 1.83460861e-01, 3.33212495e-01, 4.27390039e-01,
          3.12729537e-01, 3.41013707e-02, 3.75286229e-02, 1.36367725e-02,
          1.51567698e-01, 5.61821833e-02, 1.36239678e-02, 1.18218437e-02,
          3.23667675e-01, 2.29034647e-01, 1.19959161e-01, 8.74287784e-02,
          0., 3.98677686e-04, 0., 7.07961340e-03, 4.37264703e-02,
          6.39584959e-02, 5.80582470e-02, 2.92013288e-02, 2.14877781e-02,
          1.05036777e-02, 8.00897088e-03, 1.49297100e-02, 1.63944677e-01,
          1.93322599e-01, 1.90308914e-01, 6.94260327e-03, 1.03395209e-02,
          6.51610782e-03, 1.70315185e-03, 2.32629431e-03, 1.50523474e-02,
          9.55128670e-03, 1.08661298e-02, 1.23901041e-02, 1.60594136e-02,
          1.69170834e-02, 8.97930749e-03, 1.51085146e-02, 2.49248855e-02,
          2.77731009e-03, 1.42772018e-03, 5.59484772e-03, 3.41363341e-01,
          1.33473188e-01, 2.57708102e-01, 6.24652803e-01, 5.10042012e-01,
          1.58361509e-01, 2.55558074e-01, 6.35634586e-02, 5.02830781e-02,
          5.29117621e-02, 4.13049720e-02, 3.11000228e-01, 2.03216359e-01,
          3.11693847e-02, 1.51958525e-01, 1.42722368e-01, 2.81907711e-03,
          2.61114351e-03, 1.49887260e-02, 1.47664091e-02, 2.05923971e-02,
          2.89147757e-02, 1.61209125e-02, 4.50993190e-03, 5.22924960e-03,
          9.72832181e-03, 1.32316872e-02, 6.65033562e-03, 8.51047318e-03,
          8.21895141e-04, 6.43092999e-03, 7.18726486e-04, 6.53133765e-02,
          2.11926606e-02, 2.62189331e-03, 2.52413694e-02, 2.19202057e-01,
          7.09192097e-01, 4.13385212e-01, 1.26010865e-01, 1.47974283e-01,
          2.52398938e-01, 2.19814405e-01, 2.87730962e-01, 5.74319065e-02,
          4.62536886e-02, 9.90825817e-02, 7.31967166e-02, 3.17653157e-02,
          5.18777482e-02, 8.08774307e-02, 2.05097675e-01, 9.92401540e-02,
          0., 7.76443407e-02, 4.83669341e-02, 8.58401358e-02,
          1.51583284e-01, 4.81667161e-01, 1.78697079e-01, 4.80017252e-02,
          3.25587392e-02, 3.95696796e-02, 2.10619494e-02, 2.19460800e-02,
          1.01586245e-02, 1.03514399e-02, 2.56060883e-02, 3.70823294e-02,
          6.79011317e-03, 1.04716299e-02, 1.36483219e-02, 4.93545011e-02,
          1.34948622e-02, 1.02152657e-02, 6.75826613e-03, 2.46070195e-02,
          1.50470156e-02, 8.11487716e-03, 5.44959540e-03, 2.12611228e-01,
          3.11565727e-01, 4.62040603e-01, 5.76511085e-01, 3.12869281e-01,
          1.67415459e-02, 1.10665131e-02, 0., 1.62839182e-02,
          4.28269897e-03, 1.89109438e-03, 0., 1.47396162e-01,
          3.38747263e-01, 2.13308483e-01, 1.54615447e-01, 2.41017272e-03,
          6.45416137e-03, 6.76965248e-03, 3.66612896e-03, 1.32795153e-02,
          0., 3.00658052e-03, 1.43745297e-03, 1.62784345e-02,
          8.12407117e-03, 8.25282093e-03, 5.44890948e-02, 2.19466045e-01,
          5.89237809e-01, 2.20458880e-01, 1.13329133e-02, 1.33934347e-02,
          3.89340566e-03, 0., 9.96694318e-04, 8.80481210e-03,
          1.44888638e-02, 3.98677686e-04, 2.44835671e-03, 2.81173941e-02,
          1.92588195e-02, 3.97643633e-02, 4.46575880e-02, 4.19013053e-02,
          3.22041777e-03, 7.56076723e-03, 1.17297759e-02, 2.43820950e-01,
          1.29595816e-01, 1.47282317e-01, 1.17142427e+00, 7.89380789e-01,
          2.18567058e-01, 2.25483805e-01, 6.35936558e-02, 1.62623432e-02,
          2.42752042e-02, 6.89333826e-02, 2.44705036e-01, 9.54349041e-02,
          5.36657088e-02, 8.97417143e-02, 4.22444865e-02, 8.45723145e-04,
          0., 0., 0., 3.85691458e-03, 4.55483422e-03, 4.06340323e-03,
          2.32679700e-03, 1.23623097e-02, 2.20288206e-02, 2.87145004e-02,
          6.74845502e-02, 4.97388244e-02, 1.64379028e-03, 1.42772018e-03,
          4.45735233e-04, 5.29147051e-02, 2.07776017e-02, 1.85463633e-02,
          3.55498008e-02, 2.51594990e-01, 8.78018260e-01, 4.77164328e-01,
          1.92093641e-01, 2.10177660e-01, 2.11905569e-01, 1.65750846e-01,
          1.63772836e-01, 2.12424193e-02, 1.40849734e-02, 0.,
          8.12003389e-02, 3.12961191e-02, 9.41596925e-03, 2.18271501e-02,
          1.08611979e-01, 5.28157428e-02, 6.43884540e-02, 3.79268033e-03,
          5.43774106e-02, 9.77131948e-02, 3.43971223e-01, 6.49743855e-01,
          3.41637522e-01, 5.48045859e-02, 8.97508021e-03, 6.46118298e-02,
          1.83184743e-02, 8.75949021e-03, 2.67149042e-03, 2.28600344e-03,
          2.50166724e-03, 4.53477912e-03, 0., 6.96968287e-03,
          7.18726486e-04, 1.97968613e-02, 4.52746898e-02, 2.31578946e-02,
          2.84704659e-02, 8.75539184e-02, 6.88231643e-03, 2.45720726e-02,
          1.03718434e-02 ]
      - [ 5.30544706e-02, 1.12285011e-01, 1.85723230e-01, 2.66335964e-01,
          9.60675068e-03, 4.83521959e-03, 8.59772228e-03, 1.18279795e-03,
          1.31910155e-02, 1.07800178e-02, 1.83702633e-02, 1.18779548e-01,
          1.86394811e-01, 3.27390917e-02, 3.84019278e-02, 1.45393107e-02,
          1.54998988e-01, 3.22964370e-01, 7.31389076e-02, 2.23949775e-02,
          1.92450657e-01, 3.99616212e-02, 7.14135496e-03, 3.59555036e-02,
          1.03982396e-01, 7.26343319e-02, 7.66393617e-02, 7.13842884e-02,
          3.75200771e-02, 2.85201464e-02, 1.02609154e-02, 3.61031175e-01,
          1.67485978e-02, 0., 0., 1.46594550e-03, 9.19182971e-03, 0., 0.,
          1.03589753e-02, 1.22361491e-02, 4.79944935e-03, 3.16371955e-02,
          5.56859486e-02, 1.24075487e-01, 3.23136151e-01, 1.70994088e-01,
          8.60204175e-02, 8.48210603e-02, 1.07296616e-01, 7.38546252e-02,
          6.65392935e-01, 1.23185642e-01, 1.47570863e-01, 1.56123424e-03,
          8.49021822e-02, 3.72424610e-02, 0., 5.05144857e-02,
          8.23573470e-02, 2.35905141e-01, 8.60702842e-02, 1.11913435e-01,
          1.61904003e-02, 5.27485013e-02, 2.01621205e-02, 3.03736571e-02,
          1.01013720e-01, 3.98456156e-01, 3.65885079e-01, 3.66861433e-01,
          1.14609627e-02, 1.83849055e-02, 7.10013835e-03, 3.41076055e-03,
          4.76036906e-01, 3.90689611e-01, 2.25771099e-01, 3.08294743e-01,
          8.42368603e-02, 9.64041054e-02, 4.91783470e-02, 5.83667345e-02,
          1.91210121e-01, 4.45331514e-01, 6.34148896e-01, 1.37598649e-01,
          2.08270937e-01, 8.67497101e-02, 7.26784468e-02, 4.23578992e-02,
          5.44548081e-03, 5.38888946e-02, 4.35256213e-02, 5.99802844e-02,
          7.60384426e-02, 1.14817627e-01, 5.75136766e-02, 1.91799719e-02,
          2.96612596e-03, 8.17098022e-02, 8.59172568e-02, 4.79647964e-01,
          6.22817159e-01, 2.16308206e-01, 2.35859454e-02, 1.81871708e-02,
          1.95036773e-02, 9.28940177e-02, 5.21263838e-01, 2.39867181e-01,
          2.04976365e-01, 3.63470227e-01, 2.07905620e-01, 1.20291829e-01,
          8.11525881e-02, 1.86823867e-03, 1.74860866e-03, 2.93245334e-02,
          9.49735790e-02, 3.22412580e-01, 3.93149227e-01, 7.40315914e-01,
          3.28671753e-01, 1.37395576e-01, 1.13519840e-02, 1.39806252e-02,
          1.16209416e-02, 8.40374604e-02, 1.66019469e-01, 2.93095559e-01,
          2.69612759e-01, 1.43454866e-02, 0., 0., 0., 8.27410351e-03,
          3.27795371e-03, 0., 1.22127458e-02, 2.69728720e-01,
          7.55201131e-02, 7.00538307e-02, 5.99828064e-02, 1.50774121e-01,
          3.97448510e-01, 7.55716562e-02, 8.65366533e-02, 1.64195776e-01,
          0., 1.57174282e-02, 2.01341864e-02, 5.75328507e-02,
          3.43879573e-02, 4.43621129e-02, 5.55508249e-02, 7.62074366e-02,
          5.69484979e-02, 1.06456794e-01, 3.80211920e-01, 1.35871908e-02,
          0., 0., 0., 4.42467304e-03, 1.02609152e-03, 0., 0.,
          2.38482282e-03, 3.60784750e-03, 5.82820317e-03, 6.80107698e-02,
          1.80013090e-01, 4.59266037e-01, 2.84974366e-01, 5.14634363e-02,
          4.42833938e-02, 6.03089184e-02, 9.16707963e-02, 6.78965867e-01,
          2.35387415e-01, 1.82077199e-01, 7.76430890e-02, 3.59058306e-02,
          4.27001305e-02, 4.65218015e-02, 8.80093407e-03, 5.14555648e-02,
          2.03635678e-01, 6.82475716e-02, 9.25960913e-02, 6.17748499e-03,
          6.29914105e-02, 1.35929212e-02, 2.49476302e-02, 1.28218234e-01,
          4.16377008e-01, 1.93174407e-01, 3.87227833e-01, 3.38134952e-02,
          1.90486796e-02, 5.60840638e-03, 6.67041913e-03, 3.76196593e-01,
          5.82829893e-01, 2.00888574e-01, 3.83175373e-01, 8.17113817e-02,
          6.46842048e-02, 3.88911627e-02, 5.78330569e-02, 9.44483355e-02,
          4.17602420e-01, 6.70541406e-01, 2.23819360e-01, 2.44296223e-01,
          1.04059175e-01, 7.25842118e-02, 5.19206673e-02, 1.29089477e-02,
          8.33333656e-02, 7.73904705e-03, 4.94428091e-02, 7.93244615e-02,
          4.82913963e-02, 3.89607288e-02, 4.50298563e-02, 2.97341077e-03,
          9.03548151e-02, 8.75214785e-02, 5.23931801e-01, 5.58276832e-01,
          2.13656828e-01, 8.91629886e-03, 1.44721232e-02, 1.30573744e-02,
          7.39666224e-02, 3.74516815e-01, 1.18141428e-01, 1.75360516e-01,
          2.82758951e-01, 1.98564306e-01, 7.89964125e-02, 9.03656036e-02,
          6.90421322e-03, 2.81135039e-03, 1.80542271e-03, 8.94436464e-02,
          3.36564153e-01, 4.67402965e-01, 9.47932601e-01, 2.77619332e-01,
          1.24752328e-01, 0., 6.71953848e-03, 2.76087597e-02 ]
      - [ 5.50716817e-02, 2.03172993e-02, 3.54688130e-02, 6.57445043e-02,
          4.76631969e-02, 3.70960943e-02, 9.46379267e-03, 9.76082310e-03,
          1.48494160e-02, 0., 2.68532019e-02, 6.05992153e-02,
          2.78704047e-01, 6.18524812e-02, 2.88186707e-02, 1.20326933e-02,
          1.27537087e-01, 3.01227067e-02, 1.02334619e-01, 2.40925938e-01,
          1.20575286e-01, 5.27472887e-03, 9.58858803e-03, 2.98251007e-02,
          1.55068403e-02, 4.19866852e-03, 1.32856248e-02, 2.10735556e-02,
          2.64053885e-02, 4.44801301e-02, 5.06187230e-02, 1.70528814e-01,
          5.12515344e-02, 1.48353223e-02, 3.47540863e-02, 1.39091238e-01,
          2.17495084e-01, 1.20593555e-01, 7.50536099e-02, 2.67855544e-02,
          9.66441929e-02, 3.65788490e-02, 1.07127670e-02, 2.93497257e-02,
          4.50572446e-02, 6.19512871e-02, 1.12943565e-02, 3.39981238e-03,
          9.78363156e-02, 2.36438811e-02, 1.73809811e-01, 2.05256492e-01,
          1.04201995e-01, 2.88402867e-02, 1.24288043e-02, 3.92942168e-02,
          7.86912348e-03, 1.22286798e-02, 3.79845574e-02, 9.67979580e-02,
          1.80677071e-01, 1.23764805e-01, 5.49697839e-02, 8.18654224e-02,
          4.39415537e-02, 1.87142100e-02, 1.92713924e-02, 1.88570023e-01,
          8.68557617e-02, 9.91617218e-02, 7.83168599e-02, 1.58917028e-02,
          4.96450104e-02, 4.56824563e-02, 5.13752215e-02, 2.40878433e-01,
          5.21935940e-01, 1.96684167e-01, 5.09538576e-02, 1.12289703e-02,
          6.28755018e-02, 6.56458810e-02, 6.96349069e-02, 2.83831656e-01,
          5.50039709e-01, 1.03311755e-01, 2.85648070e-02, 3.60622138e-01,
          3.89619142e-01, 1.98411141e-02, 6.86663901e-03, 2.91363359e-03,
          8.08947608e-02, 2.53709070e-02, 3.16861272e-02, 6.05970249e-02,
          2.44669661e-01, 2.31947124e-01, 1.48350611e-01, 2.86934376e-01,
          3.55535030e-01, 1.78409472e-01, 2.59138852e-01, 0.,
          9.21813305e-03, 4.39532511e-02, 2.97938824e-01, 2.52034426e-01,
          5.49915314e-01, 2.15492979e-01, 2.69724429e-01, 3.21305841e-01,
          7.80181214e-02, 3.51515338e-02, 4.21085879e-02, 3.13316643e-01,
          9.02011693e-02, 5.33229904e-03, 4.70778942e-02, 3.25160682e-01,
          2.31443092e-01, 1.96601599e-02, 1.01024687e-01, 1.12566125e+00,
          5.25408387e-02, 1.74545608e-02, 8.39748885e-04, 8.13449323e-02,
          4.33230363e-02, 8.79325271e-02, 1.19274743e-01, 1.66764572e-01,
          6.82398304e-02, 0., 0., 1.28625671e-03, 4.19228012e-03,
          3.71553772e-03, 1.76434331e-02, 2.38242652e-02, 1.31674990e-01,
          1.81574464e-01, 3.99397910e-02, 4.20399681e-02, 1.49944425e-01,
          1.13837957e-01, 2.96562433e-01, 2.38645881e-01, 3.12091950e-02,
          2.47580814e-03, 0., 2.10903957e-03, 2.70108902e-03,
          3.00527969e-03, 0., 1.09603712e-02, 4.58038449e-02,
          2.00454235e-01, 2.33877897e-01, 1.69257194e-01, 3.56416404e-02,
          4.31913659e-02, 6.11975044e-02, 1.45487010e-01, 2.16267616e-01,
          1.15317456e-01, 5.54752797e-02, 2.17644945e-02, 6.27903789e-02,
          3.78660560e-02, 2.14727293e-03, 1.44028906e-02, 6.52010962e-02,
          1.83203489e-01, 3.05958688e-02, 1.92916915e-02, 8.67485330e-02,
          1.09127164e-01, 2.00238481e-01, 3.78445178e-01, 1.62250191e-01,
          9.55214053e-02, 6.08637407e-02, 9.46825184e-03, 4.55658184e-03,
          1.30769154e-02, 1.65509700e-03, 6.05450384e-02, 1.17270015e-01,
          6.87834918e-02, 3.95311639e-02, 6.15066886e-02, 2.28531621e-02,
          1.37038054e-02, 1.03701334e-02, 1.50890172e-01, 6.73627779e-02,
          7.59825334e-02, 3.88103537e-02, 3.73329259e-02, 4.81409505e-02,
          3.57106365e-02, 9.61285457e-02, 3.49147260e-01, 6.58149838e-01,
          1.89223945e-01, 8.77302419e-03, 1.84201375e-02, 5.27105555e-02,
          4.70735505e-02, 9.66628417e-02, 3.72135252e-01, 6.53734922e-01,
          1.72813565e-01, 1.65718988e-01, 3.74029756e-01, 3.97601396e-01,
          2.17175242e-02, 0., 1.10476266e-03, 6.64468780e-02,
          2.19167862e-02, 1.99031215e-02, 1.99515335e-02, 1.13007851e-01,
          2.50020623e-01, 1.01833098e-01, 2.71440268e-01, 3.24637741e-01,
          2.94799864e-01, 2.77328879e-01, 9.51493718e-03, 1.63263734e-02,
          4.13836688e-02, 3.14370424e-01, 2.35887453e-01, 6.01298034e-01,
          2.14574143e-01, 1.96624845e-01, 1.41698778e-01, 5.85200414e-02,
          1.66209769e-02, 2.92748362e-02, 2.45077461e-01, 8.19703862e-02,
          6.99101388e-03, 3.74632217e-02, 3.31283003e-01, 2.44646266e-01,
          6.18377551e-02, 1.38681576e-01, 1.28826714e+00, 9.65326354e-02,
          1.60483532e-02, 2.58793570e-02, 3.31115536e-02 ]
      - [ 9.22763646e-02, 5.03910363e-01, 9.59086239e-01, 2.91998625e-01,
          1.13377422e-01, 8.18113238e-02, 5.22125997e-02, 4.14755717e-02,
          1.14086330e-01, 8.09279755e-02, 2.67086010e-02, 1.20233700e-01,
          1.86846390e-01, 1.27287731e-01, 2.54259463e-02, 4.13728543e-02,
          2.76910067e-01, 4.93377708e-02, 0., 4.15102020e-03,
          8.60913172e-02, 3.82360332e-02, 1.21599995e-01, 2.20537722e-01,
          1.58234015e-01, 2.39949733e-01, 8.11968669e-02, 1.45640746e-02,
          2.50776798e-01, 2.78753728e-01, 3.17406565e-01, 1.78235084e-01,
          3.01801413e-02, 2.87755649e-03, 1.02478696e-03, 0.,
          5.13160322e-03, 0., 3.87265231e-03, 1.28267240e-02,
          1.76866632e-02, 2.44741756e-02, 1.95085965e-02, 5.08748665e-02,
          3.33335280e-01, 8.21105540e-01, 7.21831173e-02, 8.53714943e-02,
          2.93461252e-02, 7.34399483e-02, 2.35295091e-02, 3.28831434e-01,
          7.26798177e-01, 2.50013545e-02, 4.39510262e-03, 3.18341181e-02,
          3.64482589e-02, 5.38283661e-02, 2.38845516e-02, 9.82511044e-03,
          1.46359457e-02, 1.90594867e-02, 6.01421623e-03, 2.94594057e-02,
          2.27379822e-03, 1.81992655e-03, 1.24800242e-02, 0.,
          2.09321976e-02, 1.03602810e-02, 1.86078791e-02, 1.37159089e-02,
          2.83708628e-02, 5.51543459e-02, 2.77595967e-01, 6.80040896e-01,
          1.34710640e-01, 1.20233512e-02, 1.32168587e-02, 0.,
          2.67968804e-01, 7.73120075e-02, 7.32053369e-02, 3.25656980e-02,
          5.02662718e-01, 7.47138739e-01, 5.83837152e-01, 1.67856947e-01,
          2.77953409e-02, 9.88291297e-03, 4.17724140e-02, 1.85843818e-02,
          2.21491791e-02, 4.64342395e-03, 3.12586352e-02, 3.09904106e-02,
          3.18728611e-02, 5.26007870e-03, 0., 0., 2.04641838e-02, 0., 0.,
          9.26315427e-01, 6.12922788e-01, 2.86445498e-01, 2.58703738e-01,
          2.29900882e-01, 2.09655866e-01, 3.33084762e-01, 2.62900978e-01,
          2.12220222e-01, 3.55767757e-02, 2.02568062e-02, 0.,
          2.73358636e-03, 4.19044401e-03, 3.76741565e-03, 1.00833718e-02,
          2.30013765e-02, 1.65617485e-02, 6.73565865e-02, 1.70455590e-01,
          4.31087375e-01, 8.34528059e-02, 1.43549293e-02, 2.24309769e-02,
          1.12037016e-02, 6.71017170e-02, 3.46382201e-01, 4.14308965e-01,
          1.52196884e-01, 5.43326177e-02, 7.12798536e-02, 1.19069219e-01,
          9.40248519e-02, 2.23730817e-01, 1.56834647e-01, 7.14623109e-02,
          1.59695968e-01, 2.34008208e-01, 7.92191699e-02, 0.,
          3.09745520e-02, 2.33303741e-01, 4.82718833e-02, 9.74846408e-02,
          8.80246162e-02, 7.82450214e-02, 3.86968441e-02, 1.22393698e-01,
          1.75270781e-01, 2.79166967e-01, 1.35444239e-01, 8.27366933e-02,
          5.77877201e-02, 1.44226491e-01, 1.76651746e-01, 1.47639081e-01,
          7.23581612e-02, 8.18921775e-02, 1.05696106e-02, 1.65730098e-03,
          1.37684736e-02, 2.20645405e-02, 1.02478696e-03, 1.40331239e-02,
          7.65937241e-03, 1.14337327e-02, 1.09427422e-02, 3.17772967e-03,
          7.25723431e-02, 1.35164723e-01, 2.85023332e-01, 7.09340945e-02,
          4.07117084e-02, 5.71194291e-02, 1.00352749e-01, 3.56992371e-02,
          1.48521945e-01, 3.76343817e-01, 5.54563850e-02, 1.32183367e-02,
          1.08730923e-02, 1.55360131e-02, 4.87654731e-02, 3.42615657e-02,
          4.19874825e-02, 6.05334081e-02, 1.97418965e-02, 4.08644676e-02,
          9.54861753e-03, 2.33789738e-02, 6.02931774e-04, 4.89411643e-03,
          0., 7.37903873e-03, 7.61946570e-03, 2.92333197e-02,
          2.73776669e-02, 9.84931663e-02, 7.56565556e-02, 1.48901537e-01,
          1.96215570e-01, 1.49051622e-01, 2.64159795e-02, 9.06871818e-03,
          1.17188878e-03, 1.89650014e-01, 6.30495697e-02, 1.03925787e-01,
          5.87082282e-02, 3.96283299e-01, 2.31521994e-01, 4.06444460e-01,
          1.23275556e-01, 5.68449555e-04, 1.40684086e-03, 1.85291877e-03,
          5.58123132e-03, 2.41987016e-02, 8.48819613e-02, 1.54999211e-01,
          2.46503860e-01, 7.60043561e-02, 7.92083517e-02, 4.58298670e-03,
          9.39662755e-03, 3.14181596e-02, 0., 5.62736345e-03,
          7.10077167e-01, 5.33960521e-01, 2.12227434e-01, 1.27756625e-01,
          7.74712637e-02, 1.13994792e-01, 4.57009785e-02, 7.01140165e-01,
          2.77868927e-01, 7.12001771e-02, 4.57630530e-02, 1.93434507e-02,
          2.15201695e-02, 1.63950529e-02, 6.24905853e-03, 5.57551999e-03,
          1.56968250e-03, 1.21150278e-02, 2.44456977e-02, 8.88073631e-03,
          8.00398886e-02, 7.87945390e-02, 4.14176024e-02, 5.35086840e-02,
          3.96519043e-02 ]
      - [ 4.32230392e-03, 7.66056636e-03, 5.14725456e-03, 9.08406749e-02,
          2.33236536e-01, 6.29312322e-02, 6.12911470e-02, 5.61627150e-02,
          2.41121147e-02, 2.05281912e-03, 1.24356197e-03, 1.49744679e-03,
          0., 2.19832757e-03, 3.22172325e-03, 0., 2.23142784e-02,
          8.68291035e-03, 8.79495312e-03, 1.03164864e+00, 7.97581553e-01,
          9.66112223e-03, 1.37637090e-03, 1.25901052e-03, 4.33200924e-03,
          7.34782312e-03, 2.78068893e-03, 4.79092479e-01, 8.96212816e-01,
          3.25068533e-02, 7.62587972e-03, 1.72009189e-02, 6.43957481e-02,
          1.83733962e-02, 1.48361437e-02, 1.75866217e-03, 6.41859835e-03,
          0., 1.97848538e-03, 5.47165330e-03, 1.99160678e-03,
          6.51655253e-03, 6.28919667e-03, 4.12305295e-02, 6.25396818e-02,
          3.41734812e-02, 8.75596702e-02, 5.25356717e-02, 3.33682681e-03,
          2.77221133e-03, 3.57619449e-02, 1.27710894e-01, 2.51121372e-01,
          2.43824143e-02, 5.16064558e-03, 0., 7.50786019e-03, 0., 0., 0.,
          0., 0., 1.96624402e-04, 0., 2.59611178e-02, 1.20954616e-02,
          1.44044245e-02, 2.52333172e-02, 1.87206361e-02, 6.75558811e-03,
          8.30139313e-03, 2.69211852e-03, 8.28970782e-03, 8.22821818e-03,
          1.02174440e-02, 2.37364955e-02, 2.41132174e-02, 1.08722327e-02,
          2.27365457e-02, 6.04115659e-03, 2.74755843e-02, 4.03469466e-02,
          8.76060575e-02, 2.56118596e-01, 4.10238355e-01, 5.87638505e-02,
          3.66750509e-02, 3.87803931e-03, 5.89957312e-02, 2.69467849e-03,
          0., 0., 2.37735291e-03, 8.10703146e-04, 4.20484552e-03, 0.,
          2.36767135e-03, 1.74835529e-02, 9.55384225e-03, 6.19463563e-01,
          1.04040360e+00, 3.37317996e-02, 4.60455474e-03, 2.26185303e-02,
          1.75145697e-02, 5.99781936e-03, 3.67629901e-02, 3.04871768e-01,
          9.28116620e-01, 0., 1.84535247e-03, 8.79151747e-03,
          2.96383607e-03, 3.44690913e-03, 0., 1.58617296e-03,
          1.33396611e-02, 6.96404837e-03, 2.22672392e-02, 7.31254071e-02,
          1.53234363e-01, 6.02270663e-02, 1.45274727e-02, 7.96241779e-03,
          3.89191136e-02, 1.11151421e-02, 7.61736417e-03, 1.22536607e-02,
          2.90210079e-02, 1.65315736e-02, 1.73652582e-02, 1.10611627e-02,
          5.02892993e-02, 1.73964761e-02, 2.75828019e-02, 2.03277469e-02,
          8.89820512e-03, 3.39399232e-03, 8.35996028e-03, 1.40604433e-02,
          1.20213069e-02, 1.97605090e-03, 7.86497607e-04, 1.41787878e-03,
          0., 0., 0., 2.92193413e-01, 1.31692445e+00, 1.97605090e-03,
          6.87949313e-03, 1.03398645e-02, 1.15477201e-02, 4.90440428e-02,
          1.68750063e-02, 9.66892779e-01, 7.82322288e-01, 1.43144734e-03,
          4.60355170e-03, 0., 2.29737312e-02, 1.07304016e-02,
          9.01152100e-03, 0., 6.81899488e-03, 2.43210956e-03,
          1.47105698e-02, 6.58461079e-02, 1.08835198e-01, 3.62513736e-02,
          4.32491265e-02, 3.13843600e-02, 4.85380441e-02, 1.71472616e-02,
          1.15818437e-02, 8.32543522e-03, 1.87513442e-03, 5.38459187e-03,
          4.54035215e-03, 1.69999748e-02, 4.84625325e-02, 2.47060191e-02,
          1.86486226e-02, 1.67546328e-02, 8.80926661e-03, 6.14673411e-03,
          5.17907226e-03, 9.20193363e-03, 5.88768581e-03, 2.20104773e-03,
          1.96624408e-03, 0., 6.18628832e-03, 1.96624402e-04,
          1.06548071e-02, 1.72458384e-02, 2.25177649e-02, 2.03739610e-02,
          1.57103799e-02, 4.23222454e-03, 1.59992054e-02, 9.87375528e-03,
          8.17116071e-03, 5.92425242e-02, 2.63101086e-02, 3.73490085e-03,
          1.02126570e-02, 2.81644356e-03, 1.03613548e-02, 1.99204981e-02,
          1.81233920e-02, 1.70521457e-02, 3.21706712e-01, 6.57626018e-02,
          2.91143004e-02, 8.48061405e-03, 7.38219097e-02, 4.90694493e-03,
          1.62140629e-03, 0., 6.02823496e-03, 1.81278738e-03,
          4.55030845e-03, 7.26314168e-03, 4.47053537e-02, 3.68790366e-02,
          1.83939133e-02, 6.07658803e-01, 7.85632432e-01, 7.11355405e-03,
          9.83122038e-04, 0., 8.34206701e-04, 3.17789824e-03,
          1.86534284e-03, 5.14436424e-01, 1.07627869e+00, 3.62658966e-03,
          1.68320220e-02, 2.04044934e-02, 1.48625880e-01, 1.19594960e-02,
          2.87214969e-03, 4.99937637e-03, 1.07755112e-02, 0.,
          7.45812431e-03, 8.79331084e-04, 3.82161676e-03, 1.39584043e-03,
          6.21780986e-04, 8.79331084e-04, 2.99309175e-02, 2.18514819e-02,
          2.73350421e-02, 1.17007896e-01 ]
      - [ 1.14852926e-02, 1.39637785e-02, 5.21175284e-03, 4.34816062e-01,
          1.81769341e-01, 1.08195031e-02, 1.11882621e-02, 1.45747252e-02,
          1.06854718e-02, 5.09690270e-02, 5.04739359e-02, 4.68246043e-02,
          3.15057337e-02, 4.95767500e-03, 3.34534165e-03, 0.,
          1.56360064e-02, 6.75620437e-02, 1.07317589e-01, 2.47062758e-01,
          1.48031101e-01, 1.43268257e-01, 9.91060808e-02, 3.20439078e-02,
          2.10989304e-02, 2.22077984e-02, 2.28897519e-02, 5.00538312e-02,
          2.02281952e-01, 4.72420990e-01, 2.22577214e-01, 4.80859950e-02,
          2.93815676e-02, 4.29404005e-02, 6.41345009e-02, 4.44375500e-02,
          1.08941019e-01, 3.23559903e-02, 1.36718957e-03, 7.28235953e-03,
          1.27694532e-02, 1.03757083e-02, 2.14760173e-02, 7.93908685e-02,
          2.65973538e-01, 5.51812015e-02, 9.99946240e-03, 9.76564013e-04,
          2.78500579e-02, 1.82450190e-02, 1.11819379e-01, 6.21238291e-01,
          7.09656417e-01, 7.25892885e-03, 1.60104260e-02, 3.83933540e-03,
          3.94188007e-03, 4.13478864e-03, 0., 4.90640327e-02,
          1.16827525e-01, 8.28074943e-03, 9.45273880e-03, 6.00693598e-02,
          4.97185206e-03, 1.05179159e-03, 1.72817018e-02, 8.34552348e-02,
          1.35015726e-01, 6.75358577e-03, 1.08824903e-02, 3.08919465e-03,
          7.45777786e-03, 5.72352670e-03, 2.42330786e-03, 2.48541534e-01,
          1.55724421e-01, 3.25467736e-02, 3.35264672e-03, 2.50490522e-03,
          8.63114670e-02, 5.33619709e-02, 4.34435830e-02, 1.38219878e-01,
          3.98895591e-01, 2.06263751e-01, 1.27899796e-01, 0.,
          7.73399184e-03, 2.22690846e-03, 8.59704148e-03, 1.30082974e-02,
          6.01499192e-02, 1.40473932e-01, 2.86005754e-02, 3.86238880e-02,
          1.05179157e-02, 3.18839448e-03, 2.64139622e-02, 3.61344963e-01,
          2.09001437e-01, 7.23511875e-02, 2.18230292e-01, 1.07539944e-01,
